7037 200
sent_0 0.26513967 -0.02725347 0.008017881 0.049019866 -0.15694153 -0.08391704 0.21773607 -0.23628294 0.013491443 0.18102063 0.08987339 0.18508619 -0.0066390513 0.290437 0.09611343 -0.040225543 -0.011054241 -0.015518974 0.050874706 -0.0210264 0.09062534 0.17963903 -0.11781372 0.30830485 0.2147403 -0.12070726 0.08904742 -0.039457504 0.044188254 -0.16503684 -0.008924841 -0.036335353 0.017260471 -0.0047719516 0.072132215 -0.058484443 0.1324183 -0.15043226 -0.11109429 0.13045004 0.02026165 0.038043894 0.20720738 -0.12836373 -0.025924575 -0.024482505 0.13753553 0.18878639 -0.12066993 -0.15541781 0.0973569 -0.092000976 -0.023058973 -0.032695804 0.006187484 -0.20217377 0.048072193 -0.10040754 -0.070174724 0.24951786 -0.2245981 0.14199136 0.041975245 -0.07960375 0.11411163 -0.1264772 -0.295255 0.08613447 -0.006640721 -0.22269738 0.12812775 0.27778384 0.07476724 0.21225487 -0.17964236 0.043707583 0.046776958 -0.010711581 0.047763243 0.005549718 -0.042243857 -0.05599762 0.17493829 -0.053294715 -0.25116417 0.015873576 0.108707696 0.05031997 0.17891854 -0.2894315 -0.35348892 0.15588526 0.032245003 -0.0659231 -0.16923565 0.058886927 -0.13508363 0.34332955 -0.10354452 0.3304553 -0.10176396 0.09228606 0.07920874 0.15788867 -0.06195059 0.19639796 -0.084670946 0.015781723 0.18743896 0.13512872 -0.27893668 -0.27448598 0.32311264 0.079551935 0.207231 -0.046524845 0.14755766 0.19616714 -0.008491867 0.18405533 -0.21415547 0.12433767 -0.051635306 -0.34741923 0.02416795 -0.22459488 -0.114552595 0.0072889156 0.06599969 -0.14079975 -0.30433512 0.24772058 -0.23346967 -0.030151121 -0.005205832 -0.0046626446 -0.014820612 -0.23869729 0.07304555 -0.14287917 -0.12333237 -0.19992745 -0.06465786 0.37462968 -0.19808821 0.117280066 -0.09623109 -0.033965822 0.030364957 -0.00600651 0.5215676 -0.24188583 -0.19936082 0.02045725 -0.1965488 -0.1718389 -0.14728332 -0.07885463 -0.041138396 0.03133825 0.010183587 0.09924388 -0.13789374 0.0051768837 -0.17713922 0.09734617 -0.12924857 -0.1423963 0.0525099 -0.07612158 -0.09793066 -0.05960478 -0.28760344 -0.16055214 -0.17674409 -0.12779982 -0.0068087745 -0.2313653 0.11625167 0.27240667 -0.141239 0.11215307 0.10831787 0.2948879 0.17051566 0.28424004 0.044766635 0.22190832 -0.08162136 0.031473726 -0.013820004 -0.17463039 -0.28381792 -0.12968995 -0.11747989 0.12204028 -0.02106625 0.17924342 -0.47767815 -0.1799833
sent_1 -0.04507146 0.2168986 -0.064158015 2.0465103E-4 -0.0012786905 -0.35987857 0.2772751 0.008104145 -0.24872793 0.0176008 0.1811678 -0.22579214 -0.13389808 0.2216423 0.18816367 -0.25560006 2.9842713E-4 -0.20409462 -0.25563833 -0.20580316 0.10870748 0.16229331 -0.26496732 0.052572828 0.035417322 0.19119816 0.40628782 0.012787649 0.0106943175 0.1522498 0.05740899 0.18675426 -0.20201129 0.07250276 0.09043412 0.13569891 0.040348344 -0.14521192 0.17292696 0.026289511 -0.19091898 0.05744619 0.19975089 -0.17341036 -0.0747785 -0.07687316 0.30605572 0.10386302 0.16232821 -0.16865632 0.25590178 -0.13719742 -0.17372184 0.4425517 0.16026442 -0.43750557 -0.06379857 -0.16716975 0.10030072 0.06581092 -0.16659889 -0.21702616 -0.01129639 -0.10884284 0.43288168 0.34843713 0.012968801 0.21878332 0.021374373 -0.09307115 -0.07378128 0.2142335 -0.059898723 -0.044494517 -0.26096046 -0.0750182 0.044711825 -0.037463393 -0.17347941 0.3359599 0.10593935 0.3112793 0.14477402 0.17670904 -0.2634535 -0.0044329353 0.26662686 0.014096259 -0.24682331 -0.086856864 0.16175455 -0.08778098 0.09005688 0.27611905 0.010343563 -0.22658676 -0.29485273 0.17591347 0.044344842 0.1491016 -0.2293086 -0.038629383 -0.07592541 -0.3372715 -0.25317627 0.29158753 -0.07202183 -0.1625511 0.06215977 -0.13206065 -0.022219187 0.21401198 0.2078491 -0.050199218 0.38081515 -0.16893372 0.107644364 0.024062641 -0.056720838 -0.12804255 -0.17148699 0.0053773057 0.059638713 -0.35114753 0.11093234 -0.25555107 -0.14064193 -0.23355877 -0.012618055 -0.26539698 0.055646338 -0.040175606 -0.34611386 -0.020186571 0.06492131 -0.13292684 -0.11920769 -0.35060245 0.30799973 -0.2336212 0.09031155 0.11726701 -0.091577195 0.0932968 0.22184083 0.080770664 -0.024460435 -0.19411252 -0.03974105 -0.13349628 0.119970486 -0.13543698 -0.004458758 -0.12216182 0.45615283 0.006627812 -0.23526844 0.004968026 -0.024148501 -0.2520346 0.14943473 0.0058020637 -0.33307606 0.113126 -0.31275162 0.060301907 0.2057856 0.3991801 -0.1475953 0.16465329 0.04320283 -0.028650774 -0.1600789 -0.22481693 0.11749495 0.03141154 0.20713787 -0.048506424 0.046550754 -0.050287604 -0.050770752 0.01632049 -0.09427177 0.28930405 0.19280058 0.051977 0.11602558 0.015399442 0.15082408 0.2377794 0.029335598 0.062314212 -0.10234908 0.036466092 -0.15708761 0.28130436 -0.060281582 0.40294433 8.1430585E-4 -0.020089807
sent_2 -0.029405363 0.08196187 0.05299117 0.02371728 -1.6003345E-5 0.04382533 0.05524779 0.041902713 -0.053503387 0.11276613 -0.0027485683 -0.28959584 -0.020295486 0.1073093 0.048490606 -0.13817658 4.0949555E-4 -0.07982648 -0.05741958 -0.10376777 0.008820554 0.09535393 -0.07538427 -0.10440605 0.03021374 0.076843046 0.2527528 0.047862247 -0.032175522 -0.040909734 0.082457416 0.2112119 -0.21212645 -0.015533293 -0.009053093 0.0027338446 0.044925846 -0.10975516 0.099979095 -0.06776457 -0.03821021 0.05304908 0.0271915 -0.119494714 0.04913121 -0.030814242 0.23957956 3.640974E-4 0.023714874 -0.10918089 0.13638994 0.027863914 -0.06873695 0.16604234 0.054394446 -0.2997841 -0.06727597 -0.053786315 0.037751187 0.009346385 -0.15895106 -0.022664655 0.06188107 -0.0024057191 0.16219184 0.18384604 -0.018040279 0.16054995 -0.021398686 0.010139997 -0.05956325 0.13968123 -0.09498275 -0.01942044 -0.2808593 0.052624356 -0.019247863 -0.0946477 -0.07992839 0.26320103 0.0595714 0.18918392 7.127256E-4 0.040578432 -0.09186662 0.087090105 0.03400326 -0.037506405 -0.17613056 0.035052497 0.098302856 -0.031766415 0.022037717 0.18842065 -0.05166288 -0.09066025 -0.08561135 0.12658828 -0.09533607 0.043204278 0.037013263 0.036481827 -0.15520814 -0.092793085 -0.010421516 0.20469698 0.03223114 0.06642722 0.12496793 0.038792506 0.09346517 0.16465557 0.166454 -0.043801773 0.22991581 -0.15921739 0.0852742 -0.051190365 0.098190725 0.07785524 -0.11113617 -0.14732878 -0.08359938 -0.1548268 -0.06646066 -0.056308948 0.056286212 -0.104659 0.06569299 -0.020852245 -0.14284004 -0.02703764 -0.2156454 -0.05877748 -0.043056726 -0.028040843 0.020133268 -0.13790207 0.11243045 -0.2004295 0.035127714 0.1752023 0.012781661 0.04583042 0.050437264 0.02331753 -0.08978317 3.6744805E-5 -0.067324616 0.014599512 -0.04923402 -0.13256769 -0.14946862 -0.05075467 0.15101123 -0.13771641 -0.09894888 -0.034789633 -0.01982001 -0.078090906 -0.024586646 0.058097415 -0.21100251 0.043705 -0.13507354 0.020574883 0.0874338 0.2777648 0.036433827 0.120884575 -0.08290542 -0.0681273 -0.17083076 -0.12810098 -0.030393671 0.060104102 0.091208555 -0.008557389 0.0024381161 0.0034694578 -0.15452854 0.03430848 -0.004883909 0.06998886 0.038207438 0.08059168 0.046893418 -0.03578826 0.0243359 0.14404617 0.041980438 0.017162751 0.033637054 -0.0265108 0.0023871716 0.10014448 -0.119175926 0.18941344 -0.037467495 -0.013811885
sent_3 0.2928159 -0.058629606 -0.035496302 0.04075886 -0.2106394 -0.045535754 0.37734836 -0.07890565 -0.30183542 0.036981665 0.31952295 -0.13379495 -0.14169492 0.27958935 0.30531657 -0.35417113 -0.16575645 -0.053068787 -0.11087788 0.040400766 0.08964392 0.099078126 -0.2037249 0.1625958 0.11410886 -0.052014843 0.22731516 0.11082799 -0.27908462 0.174754 1.3376723E-4 0.023031691 -0.15485714 0.26740652 -0.006858103 -0.08536743 0.0081751775 -0.052940525 -0.11331273 -0.029500369 -0.24358277 -0.16860975 0.04483239 -0.119089976 0.121206075 0.100792386 0.20015882 0.47663012 0.22043979 -0.16393955 0.061681416 -0.1943903 -0.115515426 0.23106955 -0.14883572 -0.47546828 0.024536137 -0.07759622 -0.05107946 0.18312678 -0.13740173 -0.14655806 0.1456246 -0.28018764 0.41234392 0.4539217 -0.1159693 0.034874022 -0.017040187 -0.104551114 0.03514408 0.19977525 0.016691783 0.17862631 -0.18390623 0.21995197 0.07324423 -0.08224944 -0.087674655 0.16280372 -0.041941714 0.14031063 0.37154767 0.1338565 -0.48604292 -0.009344089 0.010523513 0.11083059 -0.09127919 -0.19612105 -0.30779058 -0.04170792 0.16963618 0.17053565 -0.06669729 0.023872621 -0.21018605 0.31839246 0.008265921 0.5197408 0.036622405 0.13043334 0.15536326 -0.024601353 -0.11388397 0.37362602 -0.16008663 0.011513658 0.46985036 0.070865355 -0.12035305 -0.08636937 0.1534134 0.13669884 0.36130354 -0.032947764 0.09416625 0.16167116 0.011544705 0.15267067 -0.052600965 -0.075123854 -0.013237396 -0.48182598 -2.6697372E-4 -0.27955595 -0.023896651 -0.032995343 -0.0032277452 -0.27790588 -0.22327672 0.04734234 -0.37531728 -0.13991292 -0.07238407 -0.27115703 -0.1443054 -0.37162772 0.13104574 -0.3154964 -0.07080781 0.20537283 -0.0867031 0.4974559 0.0339524 0.3752935 -0.020931602 -0.1797094 -0.083359465 -0.21315865 0.3919329 -0.17437615 -0.09414846 -0.045433976 0.22359848 -0.04108829 -0.14539708 -0.28233272 -0.09515466 -0.28271168 0.02319731 -0.070183374 -0.36718956 0.023686536 0.02257168 0.35624596 0.028550625 0.31769952 0.054347962 -0.15592736 0.0014631059 -0.07186547 -0.56300837 -0.23596975 -0.21762165 -0.0058654854 0.07193131 -0.18003972 0.036288396 0.106035806 -0.32545745 0.07032159 0.095635734 0.50349426 0.3298924 0.110411376 -0.26835725 0.20524937 0.1485308 0.07469011 0.018271636 -0.046995476 -0.3170329 -0.028310131 -0.15326302 -0.024047503 -0.024768697 0.39876467 -0.36143026 -0.24153548
sent_4 0.12798871 -0.07368065 -0.0073163747 -7.127388E-4 -0.07917942 -0.06516383 0.20052145 0.040095504 -0.1066131 0.10727999 0.21547098 -0.026081068 -0.0742768 0.16753015 0.12412362 -0.09244043 -0.069822215 -0.028281696 -0.2638165 0.16985148 0.029894581 0.011531109 -0.02571101 0.055558573 0.05054982 0.016877536 0.073213816 0.046599824 0.091470234 0.08449828 0.06474368 0.11263876 0.07761233 0.017675456 -0.076735035 -0.08358163 0.026311046 0.14774361 -0.020340301 -0.021335455 -0.10318369 0.022307938 -0.00551023 -0.017375112 -0.09868172 0.09192546 0.04677897 0.18829867 0.056527488 -0.034561016 0.06335549 -0.098547414 0.028561028 0.091551095 -0.12523736 -0.072898105 -0.13690498 -0.030314099 0.011080622 -0.033199944 -0.020922752 0.04607488 0.088342085 -0.034889862 0.12579004 0.09887997 -0.06908977 0.0587133 0.10585577 -0.042560495 0.09266242 -0.08549368 -0.110441945 -0.012771019 -0.06499826 0.0912621 -0.10412006 -0.17786749 -0.054678176 0.077372566 0.022405852 0.104310736 0.1475422 0.06179574 -0.070833236 0.015444154 0.018350828 0.14141859 -0.08590422 -0.18189654 -0.10684877 -0.007136429 0.04014355 0.026496071 0.05464626 0.118377104 -0.093857475 0.004058529 -0.07520381 0.23110317 0.14989324 -0.01344846 -0.06101486 -0.069496505 -0.027072048 0.15863098 0.01042143 0.04021503 0.20833881 0.038185176 -0.048418276 0.05059727 0.0607637 -0.005414748 0.10900392 0.04610703 -0.03071889 -0.016359342 0.07855855 0.1295171 0.014388702 -0.08755282 -0.10439208 -0.22091515 0.03691828 -0.17894842 0.064130604 -0.14851403 0.044198953 -0.048075728 -0.026237296 0.027832417 -0.004102205 -0.13063093 0.14719039 -0.12298478 1.3642908E-4 -0.1896918 0.10462891 -0.06009804 -0.10242778 0.17948647 -0.07301083 0.12669602 -0.07100472 0.07824019 0.09490825 -0.13318188 -0.020948334 -0.04823522 0.043276694 -0.119159125 0.03776815 0.06556222 0.08958734 -0.06956352 -0.06644235 -0.049309485 0.013916921 -0.1452176 0.044167817 0.013857467 -0.20093426 -0.016760463 0.0016580721 0.1553053 -0.046852186 0.11185118 -0.054295696 -0.006397087 -0.011603282 -0.013708555 -0.050612304 -0.2678879 -0.06144133 -0.013391507 0.11133737 -0.09319341 0.08032503 0.0019048811 -0.09972028 -0.05414294 -0.04971025 0.028915266 0.1692387 -0.20011476 -0.0374894 0.00799882 0.07057096 0.010653039 -0.051536713 0.044847157 -0.07731326 -0.10864277 -0.16458973 -0.07422734 -0.04395608 -0.0077599534 -0.10188988 -0.069499135
sent_5 -0.008353583 0.14352691 0.05065146 0.075523786 0.06572676 -0.20752831 0.011620686 0.21700111 -0.41516396 -0.058595944 0.024980718 -0.05532445 0.12998009 0.1525561 0.07930582 -0.082311206 -0.08038385 -0.14106485 -0.10203298 0.14005421 -0.18185717 3.5343957E-4 -0.097665004 0.13090633 0.24979559 0.18818101 0.29838455 0.07861754 -0.35966995 0.06418618 -0.1731017 0.13906223 -0.11813336 0.22676693 0.04136378 0.2137228 -0.02248033 0.0833023 0.011846782 -0.039805483 0.07394051 -0.010386005 0.051572405 -0.09414929 -0.10381222 -0.062624164 0.22535685 0.25772488 0.26167452 0.15166484 0.23072425 0.040851556 -0.20468941 0.049829025 -0.034210827 -0.3262729 -0.17098507 -0.19667614 0.13025348 0.01917591 0.13482268 -0.16859256 -0.07486227 -0.13816059 0.15457734 0.41175067 -0.078638956 0.24013881 0.028101798 -0.012354906 -0.116377465 -0.023776898 -0.05780529 -0.16390169 -0.07912697 0.047991984 0.19381267 0.018051073 -0.085724324 0.22565657 -0.22272511 -0.008066431 -0.060025033 -0.074159496 -0.19062541 0.14658274 0.1754653 0.43513128 0.112861924 -0.19685672 0.062978044 0.2579459 -0.21694925 -0.0019852004 -0.06959697 -0.118542574 -0.12872164 0.10654921 -0.046420712 0.109558105 -0.27657595 0.108136535 0.19120674 -0.21343136 -0.31073996 0.13718866 -0.19594285 -0.13620454 0.11279928 -0.18131837 -0.05820702 0.19353506 0.07728384 -0.07341135 0.18399693 0.1256421 0.029568851 0.060835022 -0.13274518 -0.2107406 -0.13852873 -0.08957665 0.18310474 -0.3156322 0.117696315 -0.008388254 -0.21059553 0.09287843 -0.18673207 -0.08052125 0.009853218 0.0020451164 0.042762198 -0.06873663 -0.20625149 0.10510265 -0.17745249 0.13444877 0.28051648 -0.20003569 0.055838145 0.1632229 0.019297397 0.15821698 0.036690447 -0.033713825 0.23946998 0.011369657 0.10645416 -0.0075323125 0.24260406 -0.17647526 -0.06279964 -0.17334317 0.17086588 -0.036182813 -0.35517797 -0.1642926 -0.050487887 -0.038790684 0.018793948 -0.022129139 -0.13686566 6.500199E-4 -0.0099791195 0.09480429 0.15957202 0.14265491 -0.14225177 0.044679273 0.14386676 -0.16337278 -0.025268579 -0.29063183 0.21535832 0.028307071 0.2144405 0.18659091 -0.21328928 -0.3303246 -0.13927838 0.17239428 -0.12597413 0.17625636 0.13264956 -0.006373921 -0.20374781 -0.24321687 0.035567462 0.029238105 -0.062231723 0.2842815 -0.26798 0.22512636 -0.26274824 0.09761144 -0.013061185 0.42239806 0.0720707 -0.012764369
sent_6 0.008318434 -0.0066886423 4.9424527E-4 -0.0052882284 -0.0042360495 0.0014374877 0.008166073 -9.5795025E-4 -6.725505E-4 0.002617721 0.0034007188 0.0049762484 -3.1022562E-4 -0.0015476788 -4.8588758E-4 0.00294349 0.0095714405 -2.986516E-4 -0.006645122 0.004325204 0.0023559225 -0.0024023158 -6.1665213E-4 -0.0017744872 -6.541546E-4 -0.0016422223 -8.1834145E-4 0.0044152765 0.0014570594 -0.0010609545 0.0049971873 0.0019430027 0.009450442 -0.0015806775 -0.004687506 -0.0013372707 -7.279866E-4 0.0059555755 -0.004901411 -0.0077660633 -0.012221027 0.0057750647 -0.0027749063 0.005217772 0.00282075 0.0042288755 -0.004901778 0.0053950124 -0.006610583 0.005044719 0.0019099732 -0.006341053 0.0049809436 0.0024420996 -0.001788661 -0.0044349926 -8.020208E-4 0.0038911432 -0.0017402575 -0.0048647095 0.0015538112 -0.004652115 -0.0033957628 7.0670043E-4 -9.1659505E-4 -0.0054202206 0.0029822814 -0.0035452733 0.004007466 0.0013644481 0.005762 -0.007304465 -0.0033447756 0.0058562555 -2.3555458E-5 0.00618379 -0.0024519828 -0.010677275 0.0022453887 -0.0013743843 -0.0063146423 0.00586595 0.004554523 0.00501871 -0.0026488146 0.0010900404 -0.0059528095 -0.0028931967 -0.0060871798 -0.009493948 -1.4216994E-4 -0.003248817 0.003654737 0.005942858 0.0038320345 0.002411299 -0.002316572 -0.0022934626 -0.006218734 0.008127325 0.00990021 0.0036406443 -0.004328468 -8.6874864E-4 0.0010345748 0.0020393976 -0.007208044 0.0077140727 0.0072607747 -0.002884748 -0.004369441 -0.0026699991 0.0025173037 0.0031531008 0.0046009393 -0.004957413 -0.0056334278 -0.00645836 8.52945E-4 0.010355824 -0.001510864 -0.002126848 -0.012582861 -0.007633049 0.005477964 -0.002480684 0.008259999 -0.009890148 -0.0010488898 -0.005367128 2.4287905E-4 5.6687556E-4 -0.0046043703 0.002000893 0.003736321 -0.013091754 3.369359E-4 -0.004050861 -0.0013485366 0.008628132 -0.0035632427 0.0055220826 -0.004064649 0.0049898983 -0.003522205 0.006435235 -2.85059E-4 -0.008434381 -0.005791619 -8.204862E-4 -0.0019709298 0.008174365 0.003465245 2.568238E-4 0.00445234 -0.0021167747 -3.793878E-4 0.0012643955 2.9273247E-4 -0.004166556 0.009201134 7.226115E-4 -0.0022488707 -0.001867264 -0.0020538059 -0.001369843 -0.0030600417 0.001302199 -8.908754E-5 -0.0054737944 -0.0068802177 0.0017678282 0.0015573743 -0.007707962 -0.0030249855 -0.007957178 9.0816704E-4 -0.007891784 0.006689076 0.0032166634 5.5776623E-6 -0.0062351674 0.006638136 0.0037432553 1.6698697E-4 -0.009992749 2.804593E-4 0.007574078 0.004083041 7.59896E-4 -0.007673777 0.003528647 0.0046124402 -0.0099472515 -0.008322942 7.2967535E-4 -0.0033393605 -0.006275593 -0.0032969208 -0.0016168226
sent_7 0.034184795 0.12467139 -0.08802264 -0.18638353 -0.11731853 -0.2900688 0.35663906 0.016183952 -0.1124915 -0.055862796 0.21427636 -0.06827192 0.032247156 0.19271426 0.17762591 -0.25009632 -0.02010757 -0.1895659 -0.3479737 0.14922051 0.033124868 0.09114753 -0.21892703 0.08319996 -0.05439201 -0.042567525 0.28404167 -0.010055847 0.14184666 0.105087265 0.010685944 0.31549263 -0.07041499 0.035785686 -0.06067611 -0.07897335 -0.053489823 0.17694737 -0.013740877 0.089833416 -0.121642776 -0.070794895 -0.03697299 0.039214488 -0.06358958 0.14092208 0.05988694 0.16138417 0.11474103 0.06802459 0.13357735 -0.18490031 -0.1156488 0.18212152 0.017337527 -0.15348744 -0.06656676 -0.12504026 0.1205152 0.14125535 -0.083497226 0.010654613 -0.056471497 -0.108929366 0.15256533 0.21530238 -0.13635941 -0.032704502 0.19187179 -0.12377328 0.02109537 -0.12657835 -0.12591413 0.13232256 -0.005386367 0.121786445 -0.16015789 -0.044227157 -0.043281123 0.15057914 0.15560526 0.10110659 0.21821864 0.18326095 -0.18898973 -0.045292776 0.065295 0.032412913 -0.23031317 -0.22020245 -0.011227743 -0.024463836 -0.066723935 0.04567513 0.10457383 0.092830054 -0.09874583 -0.052645292 0.07222191 0.18410493 -0.117057025 -0.08764572 -0.11084015 -0.17510615 -0.098660134 0.21890275 0.039047856 0.033378128 0.09188964 0.1324314 0.044538103 0.11328271 0.10668796 0.009193686 0.2120807 0.07324928 -0.047288906 -0.08415246 0.06475456 -0.03631982 0.01448204 0.034215495 -0.060166422 -0.35031945 -0.106257275 -0.28420067 -0.11028182 -0.31223443 0.06731377 -0.18065736 0.16584045 -0.08228369 -0.19902642 -0.07492213 0.25699314 -0.13284874 0.00432082 -0.42141625 0.24797827 -0.13705365 0.01910571 0.17995217 -0.13499251 0.10892414 -0.08782748 0.01580609 0.07927135 -0.2522594 -0.026811935 -0.15049705 -0.022416174 -0.27259243 0.22181408 0.10315343 0.3042096 -0.08263046 -0.14345123 0.07876059 0.05387759 -0.2564221 0.13577162 -0.085705645 -0.34370524 -0.04672148 -0.10547048 0.25697136 0.11870995 0.22537313 -0.1304193 -0.0043070675 0.028154217 0.05047666 0.006694137 -0.3931498 0.048378907 0.14575008 0.098976955 -0.11275652 0.11215274 -0.058496483 -0.082381465 -0.07787506 -0.19198857 0.13874725 0.2873893 -0.16836119 0.11182689 0.033604354 0.08388186 0.06509829 -0.071151346 0.118421175 -0.096816085 -0.078605354 -0.1480091 0.07478885 0.023853397 0.01745643 0.07151003 -0.024010962
sent_8 -0.013516639 0.03817917 0.034402516 -0.05190453 -0.025759518 0.04491795 0.036265854 0.06289753 -0.086226314 -0.11260977 -0.03184063 -0.045338813 0.08969894 0.025062324 0.023733124 -0.043227483 -0.07861698 -0.05920782 0.026630001 0.064800575 -0.051559072 -0.007723877 -0.012817462 -0.013517969 0.015507298 -0.095953315 -0.0030350452 0.03352097 -0.12325702 -0.03259325 -0.023084389 0.046484284 -0.07903925 0.08439899 -0.052460056 -0.052538067 -0.09547415 0.019546036 -0.009231689 0.021070857 0.048571482 -0.11242487 -0.08220329 0.010067446 0.0701701 0.04739254 0.0118215 0.03718846 0.08301848 0.052404884 -0.026802288 -0.004982114 -0.07013446 -0.07173462 -0.028553564 -0.02620806 0.04117114 -0.029165082 0.012358948 0.051786274 0.010388359 0.003991807 0.00953501 -0.027617332 -0.08686478 0.10618249 -0.07675741 -0.06703637 0.004674145 -0.040796097 -0.04540483 -0.06585828 0.025256217 0.009927013 0.0655297 0.07097894 0.005400013 0.028991036 0.022113463 -0.015966801 -0.0070443703 -0.09145978 0.044235535 0.00887483 -0.0917341 -0.0059754355 -0.06784462 0.005206029 -0.021817297 -0.015442106 -0.037023596 0.018996654 -0.1029557 0.026005263 -0.013627735 0.05445743 0.074541375 -0.034531277 0.0041509857 -0.052373763 0.024179656 0.078100316 0.040667776 0.024083644 -0.02582977 -0.016038215 -0.03562937 0.043725263 0.024493389 0.10560817 0.050824277 0.04491645 -0.044962656 0.037828237 0.049432125 -0.0023928673 -0.04997178 0.019708643 -0.0069503793 -0.04685026 0.011468565 -0.015154672 0.003170577 -0.04711669 -0.09187371 0.043185685 0.011480014 0.05488464 -0.022669317 -0.026627485 0.00809296 -0.026993033 -0.021173282 -0.034705095 0.009158099 0.003770464 -0.020679293 -0.0259173 0.022793658 -0.047238212 0.06046288 0.055523593 0.051554073 0.027614933 -0.0024913615 -0.026876593 0.0030279895 0.019838285 0.02753831 -0.041888587 -0.009913683 -0.063464254 -0.034534737 0.03963287 0.049707286 -0.057688463 -0.038835876 -0.0060934313 -0.015175798 -0.055191733 -0.042867877 -0.069618925 -0.027331801 -0.02212242 0.10136784 0.09020351 0.033195958 0.042488858 -0.023050746 -0.027315225 -0.03575957 0.04911722 -0.11195697 0.006607761 -0.0028963992 0.052799862 -0.061286625 -0.015870716 -0.030196268 -0.06808419 -0.07709826 0.03888883 -0.049897246 -0.004339532 0.020651605 -0.014888942 -0.03331927 -0.04774169 0.031344768 -0.037356123 -0.043220975 0.077071056 -0.06123996 0.013345429 -0.0030568535 -0.0955627 0.034490738 0.0596701 0.03051214 -0.033101108
sent_9 -0.008988952 -0.0030333758 -0.016180996 0.006620337 0.020545192 -0.0056262473 -0.010982084 -0.013259401 0.015800199 -0.0016580357 0.041099485 0.02857142 -0.04677516 0.01938181 0.019763937 0.020472774 -0.013658822 -0.0108903 -0.024618573 -0.008422548 0.016966822 -0.0058052256 -0.0026668045 0.0092597585 0.004074425 0.021261252 -0.02067662 -0.025868263 0.03342759 0.012406104 0.005449268 -0.022899725 0.024692262 -0.014705976 -0.0039505 -0.013994996 -0.0056211385 -0.0059914193 0.0133886095 0.01370387 0.016738854 -0.008510397 0.028827015 -0.004498939 -0.011434874 4.6279098E-4 -0.0018062677 -0.024804872 0.010129118 -0.028610349 0.002534347 0.011410514 0.0072242264 0.025146699 -0.02097292 0.030474601 0.004052372 0.00827156 0.011535091 0.0039375783 -0.003245756 0.004910234 0.016082002 0.017935613 0.025646139 -0.022924302 -0.026820907 0.0019058523 0.0032353224 -0.031868935 0.01152531 0.0026236954 0.0057218736 -0.010706584 0.015877081 -0.029912096 0.0043246965 0.0030267516 -0.001699822 -0.017367383 0.022209689 0.014727335 -8.993875E-4 -0.013802511 0.011711398 -0.010268233 0.024935057 0.0032973208 0.01466884 0.013576275 -0.020461274 -2.056429E-4 0.012856295 -0.010679772 0.008233834 0.0037162658 0.002340324 -1.6697493E-4 0.009917533 0.008305434 0.01093123 0.004216965 0.010830052 0.002479988 0.019303178 0.0013528125 0.0099130925 -0.03996852 -0.0067619756 7.55322E-4 -0.021619 -0.015106797 -0.0021505875 0.006459605 -0.0115888305 0.012458777 0.017748212 0.026524514 -0.008094454 0.0075278925 -0.0010666506 0.013754239 0.01931563 0.024511196 0.025155969 -0.033832822 -0.015562734 0.0024613584 0.017022585 0.015650015 0.0038626683 0.003621999 -0.003505317 -0.00776986 0.040914632 0.0069594607 -0.006655321 -0.0077557596 -0.012632638 -0.0012553234 -0.014041952 -0.016981136 0.016565964 -0.020402594 0.012147882 -0.01879771 -0.0045239413 0.017738964 -0.0075171585 -0.019035198 0.018019574 -0.004925494 -0.0028353317 0.0011363175 -0.042727496 0.0093527585 0.009937369 3.5160864E-4 0.014678575 -5.516738E-4 0.023866815 -0.0013496327 0.01452992 0.015097911 5.748236E-4 -0.029445583 -0.014179722 -0.021025296 -0.00965922 0.0024189802 0.013301768 -4.0424918E-4 0.019735845 0.025445625 -0.008074423 0.008383224 3.3290288E-4 5.5187603E-4 -0.0068841195 0.011557624 0.02441466 -0.0043570027 -0.009729846 -0.0022722401 0.0022969116 -0.0028911156 0.018638419 0.0037369083 0.0019935165 -0.0073385625 0.007088814 -0.0374742 -0.00837993 0.01642518 7.933872E-4 -0.0038050327 0.015401509 -0.026781017 -0.023183258 -0.0031217365
sent_10 0.06729527 -0.08140527 -0.056562457 0.023621019 -0.0028244636 0.009508395 -0.0034737226 -0.053856734 -0.012250763 0.06275175 0.11382112 0.033656757 -0.08579803 0.026274227 0.044944488 -0.010827867 -0.051550217 0.016601117 -0.056718487 0.065601796 0.014863879 -0.02344334 0.026321022 0.05569421 0.020716581 0.023464981 -0.028426722 0.0077958447 0.028586691 0.09449669 -0.009096285 -0.061436594 0.0673414 0.0151102785 0.0059251483 -0.035083134 0.044999756 0.049754567 -0.05572938 -5.7249615E-4 -0.055380072 -0.013763184 0.016824316 -0.016529845 -0.021223504 0.028705353 -0.011866829 0.056262363 0.03046227 -0.015641294 -0.031641454 -0.010511909 0.03606885 0.04881394 -0.100026675 0.04451261 -0.033583526 -3.9805984E-4 -0.0018231635 -0.0075243823 0.00900554 0.01859408 0.018563833 -0.023504985 0.0864767 0.015607154 -0.023603797 -0.0037809685 -0.015337597 -0.016484492 0.04816043 -0.017017104 -0.008244381 -0.009181699 0.01257694 -0.008914542 -0.01243913 -0.03166129 0.002969731 -0.028485807 -0.01709559 0.01071438 0.03711095 0.010391184 0.036939144 -0.037121143 0.004247871 0.029188728 0.039124116 -0.026948517 -0.07708477 0.013280753 0.043039147 -0.047125965 0.037965115 0.04103844 -0.052953403 0.017171334 0.001043638 0.13847782 0.040736962 -0.022660397 0.05544367 -0.009595824 0.0046246853 0.04416712 -0.008850086 -0.07362471 0.06180733 -0.0095421765 -0.044803202 -0.043016065 -0.055839308 0.010947997 -0.04459971 0.07528278 0.020227037 0.034744516 0.020259213 0.05660331 0.064356305 -0.011048455 0.040585928 0.016509015 0.049501296 -0.056434497 -4.3551998E-5 0.010105307 0.017680993 0.019107431 -0.049695347 0.030509029 0.051760197 -0.03715605 0.0335463 -0.031762015 -0.009483582 -0.0014951499 -0.017621644 -0.011891344 -0.054959625 0.005467591 -0.011421994 0.038280338 -0.023153411 0.034097224 0.021127068 -0.0030722013 -0.016525876 -0.041734375 0.08018374 0.01866583 0.027144363 -0.0077551985 -0.045101024 0.043249033 0.02291529 -0.06971694 -0.011709102 -0.015026189 0.00819292 -0.00973868 0.007757128 -0.02039085 0.058356058 0.018136326 -0.019594735 -0.039524905 -0.004031873 -0.0750512 0.05059022 0.011109331 0.0059340387 -0.018736312 -0.06449493 -0.004231288 0.026731832 -0.01765047 0.010898737 0.033918243 0.005056696 -0.011892758 0.013609415 0.047541108 0.03651464 -0.05238685 -0.052363537 0.020762239 -0.012821033 -0.031960312 0.024074668 -0.051341146 -0.01876888 0.034022734 -0.029129045 -0.048347592 0.015694795 -0.050162826 -0.066116914 -0.03311593
sent_11 0.046679296 -0.035690423 -0.08143226 -0.031167002 0.022193238 -0.079109445 0.037821528 -0.026194517 -0.006928898 0.02357732 0.1437834 0.124118865 -0.15341985 4.620292E-4 0.056281023 0.047661826 0.032957535 0.040047232 -0.070950896 0.020887677 0.100939296 0.0010184371 0.017647337 0.091797374 -0.048265155 0.010444836 -0.0826363 -0.058730952 0.10569145 0.08455022 0.002736015 -0.08762431 0.13165466 -0.04938042 -0.004095751 -0.00474966 -0.003959148 0.08025232 -0.047611095 0.058502752 -0.05066791 -0.012799761 0.034220863 0.037580967 -0.009376229 0.052227583 -0.09487434 -0.024920475 -0.048932627 0.005608447 -0.05354741 -0.060767762 0.034600712 0.098051116 -0.040080693 0.11581788 0.022167252 0.034682233 0.038840465 -0.015239228 0.07018748 -0.09624445 -0.030478152 0.050325025 0.07653649 -0.0481574 -0.028945249 -0.025670772 0.0311515 -0.055924337 0.07361272 -0.038822107 0.0053985836 -0.005033298 0.080974646 -0.05822973 0.010292978 -0.009150196 0.007847439 -0.05038214 0.0057954635 0.032891724 0.020811642 0.03332889 0.046170045 -0.05400404 0.04080366 -0.007120906 0.08830748 -0.0016216668 -0.013258165 -0.024169523 0.068241745 -0.0145013835 0.055470873 -0.0060437773 -0.025808603 -0.0031656644 0.053888936 0.083610214 0.022549039 -0.025339184 0.069468565 -0.0063623497 0.027775701 0.045425612 -0.0296232 -0.09520852 -0.0480989 -0.07965192 -0.10183123 -0.11990797 -0.09798339 0.041667104 -0.058125075 0.042160604 0.023352703 0.021352693 -0.018231714 -0.008524755 0.059209514 0.077997826 0.007198621 0.045174554 0.106992066 -0.11049983 -0.013416472 -0.08708449 -0.031162612 -0.022816319 0.06032436 0.0021638235 0.0064093806 0.050390393 0.083969906 -0.10858558 -0.0076603056 -0.014924355 -0.051919077 0.013214163 -0.05631466 -0.02468215 -0.033012122 -0.0024610911 0.058164816 0.02188942 -0.019402139 0.0061749015 -0.06563033 -0.06605517 0.050156314 0.09919355 0.07136042 0.009398099 0.0057506426 0.07807078 0.05533474 -0.023027422 0.013589235 -0.0036036621 0.1119376 -0.058722872 0.024377216 -0.010606344 0.06978609 -0.11374734 -0.008245314 -0.016983673 -0.06728083 -0.04515729 0.06994609 0.021692673 0.13185447 0.06517847 -0.017665606 0.008996127 0.055371672 -0.051192276 0.04301231 0.01514555 0.09107157 -0.06648046 -0.0060112732 0.044475686 0.08307292 -0.076931566 -0.013715037 0.08635022 0.021025501 -0.04294781 -0.023373025 -0.038029775 0.015051422 0.017270977 -0.04744788 -0.03802986 0.10249088 -0.056135517 -0.039227344 0.028130434
sent_12 -0.0782409 0.09375869 -0.014213385 -0.0049021547 0.07117833 0.014899087 -0.02206641 0.07907258 -0.04512275 -0.066458955 -0.05810803 -0.069204025 -0.028893216 0.02126081 0.030823147 -0.0015829724 -0.04208575 -0.056527656 -0.012295516 -0.052593436 -0.04181613 -0.03646664 -0.01356223 -0.020317774 0.00312396 0.06148144 0.052905127 -0.012560309 -0.006195708 -0.02195448 0.0156348 0.07652521 -0.090062715 0.046906732 -0.04566806 -0.0045730607 -0.013954599 -0.08629012 0.07791316 -0.05466775 -0.0024298558 -0.032311924 0.016384138 -0.067773096 0.038906664 -0.041312207 0.07433533 -0.040586192 0.049339827 0.011336688 0.061919916 0.038065545 -0.06829936 0.049916785 0.015005008 -0.07644413 -0.031161094 0.013512515 0.0321616 -0.039648913 -0.035165876 -0.048656788 -0.004290197 0.0533715 0.008860482 0.047583647 -0.036121454 0.025063267 2.687524E-4 -9.527018E-4 -0.0864326 -0.026091497 -0.0028350768 -0.027274974 -0.02040661 -0.019373484 0.04020893 -0.024074273 -0.03677361 0.07574482 -0.011614641 0.027231662 -0.04829842 0.00795842 -0.009589962 0.041480005 0.0014924025 -0.0103676785 -0.123428605 0.017956132 0.07703596 0.027453449 -0.04466014 0.04276319 -0.0014812009 -0.015297606 0.02335148 -0.008007087 -0.023203561 -0.06700886 -0.014575251 0.09317852 -0.043917112 -0.08973725 -0.02229902 0.0017142935 -0.01310863 -0.026760476 -0.054412797 0.0032812979 0.048890505 0.09965883 -0.013415871 -0.025006039 0.060770165 -0.035315383 -4.3065322E-4 0.0043395166 0.009746298 0.0065421094 -0.05113969 -0.064032294 0.044861168 0.021410272 0.003847108 0.040092632 0.024436826 0.047892936 7.492569E-4 2.8977223E-4 0.03152161 -0.0511222 -0.0500229 -0.013979866 0.043643802 0.03925733 -0.06344603 0.032310005 -0.0027031035 -0.0071282834 0.047856428 0.026225101 0.051375885 -0.12789966 0.058808662 -0.057401713 0.01961296 0.03714479 -0.020856665 0.029082358 -0.0262154 0.020636804 -0.027750742 -0.016251337 0.033592504 -0.0050735506 -0.037192766 0.058311198 0.0037642533 -0.02596426 0.029713847 -0.02137192 -0.035774134 0.060386542 -0.06394928 -0.039281547 0.04760228 0.07221052 -0.017211493 0.058810867 -0.037230253 0.010127727 -0.020859107 0.00761436 0.005718727 -0.037033223 0.045192327 0.044185366 -0.097185716 -0.06889 -0.014142646 0.011306677 0.015497631 -0.021286864 -0.034341406 0.016784819 0.058687788 -0.04216748 0.026487172 0.014218013 0.029498272 0.014611198 0.05846439 0.021880003 2.8944341E-6 0.024665907 -0.044795644 0.06853466 0.051354997 0.008552255
sent_13 -0.16092573 0.19011112 -0.028682666 -0.01697399 0.13377765 -0.06804185 -0.068485595 0.08784061 -0.065812625 0.22220965 -0.053481307 -0.2093896 -0.14816238 7.2229584E-4 -0.04296071 -0.080253325 0.07970476 0.01311846 -0.13159975 -0.14961317 0.15907852 0.21335283 0.031910993 -0.0038180822 -0.08631414 0.07150285 0.19462268 -0.08530182 0.23610163 -0.083166756 0.13292852 0.1347254 -0.15923265 -0.22602183 0.06430947 -0.011227896 0.1384669 -0.062257215 0.13905247 0.10950063 -0.032118723 0.15602049 0.12655236 -0.12751986 -0.019692848 -0.018416334 0.23032354 -0.19403319 -0.110485345 -0.15645397 0.13602003 -0.05276271 0.012642738 0.20091787 0.19811858 -0.11707667 -0.007449106 -0.11829259 0.11968275 -0.07307564 -0.14050755 0.009045555 0.018869404 0.20273076 0.16191477 -0.019177532 0.068780944 0.23058406 0.015965419 -0.012676563 -0.030412188 0.17699566 -0.15684538 -0.15740068 -0.27386788 -0.12934825 -0.0045761247 0.008359896 -0.115715936 0.25657398 0.16834307 0.21734199 -0.076829225 0.0021523517 0.105284035 0.06275607 0.13442451 -0.13730441 -0.0723592 0.1559168 0.2633103 -0.018796997 0.088623434 0.19813831 -0.013953134 -0.19605298 -0.07468029 0.17905453 -0.039897643 -0.116930656 -0.0068459283 -0.20291688 -0.22042207 -0.08914602 0.018999603 0.21113263 0.15185694 -0.024553975 -0.11159963 -0.0125202015 0.045517076 0.0798467 0.1929312 -0.0865485 0.11302197 -0.13641353 0.098874696 -0.09171094 0.13606465 -0.04990191 -0.11754069 -0.057693157 -0.17126712 0.00871837 0.09332644 -0.019155283 0.013231717 -0.1862047 0.011385211 0.07614928 -0.19241002 -0.036606405 -0.055565692 0.15787879 0.03971701 -0.06766378 0.050169513 -0.07883945 0.0986245 -0.21938698 -0.042900927 0.082860306 -0.05520533 -0.10874672 0.14840928 -0.11219641 -0.17220934 0.05562335 -0.12170851 0.071174815 -0.15116158 -0.0918196 -0.09002952 0.025976328 0.13837188 -0.1983945 -0.04963543 0.18027996 -0.050382074 0.10662534 0.06938978 0.0959087 -0.11985943 0.06629535 -0.13031045 -0.24609037 0.09871873 0.26445916 -0.083860636 0.2618565 0.0049586543 -0.025693266 0.087444864 0.043491498 0.014774544 0.18079314 0.24038045 -0.038007237 0.10881373 0.015875284 0.07195833 -0.033864386 -0.09240747 -0.06275761 0.0875625 0.08995843 0.16550812 -0.0973101 0.0022616147 0.21056402 0.08308095 -0.02753677 0.15627037 -0.046095345 0.059926458 0.1052022 -0.09107268 0.1749135 0.038644135 0.14487942
sent_14 -0.0020091515 0.0012772674 -0.007525328 -1.4363207E-4 0.0061337114 -0.00653471 -0.0010768466 -0.010178114 0.0051248576 -0.006934353 0.010596805 0.01567015 -0.011253502 0.0018260052 0.0014578553 0.012750356 -0.004705316 -0.005304488 -0.0077704205 -0.0058078486 0.0065879053 0.0033148983 -0.0029380117 0.012260546 0.0052498872 0.0051132212 -0.011379325 -0.013942585 0.014066785 -3.4657426E-4 -0.0033261618 -0.007047729 0.012185731 -0.009857068 -1.7203111E-4 -0.0050187022 -0.0032681015 -0.0019934047 0.0051582186 0.009760425 0.006840204 -0.0026460795 0.016835954 -0.001789721 -0.008954927 -0.0026179422 0.0020512764 -0.0050709224 0.0028954009 -0.0060671116 0.0026765717 0.0029508702 0.0036448662 0.0077432417 -0.003098262 0.011714112 0.0030623516 -0.0014337354 0.0064319693 0.0027023817 0.0042316564 0.004896219 -0.005525571 0.0022596957 0.009658347 -0.019791948 -0.0113608735 0.0023926217 -9.917101E-4 -0.015203243 0.006427403 -0.0027802975 0.0020514075 -0.005486451 0.008740537 -0.018652346 0.004274941 0.0020687059 0.0012027442 -0.0072604544 0.007276684 -0.0062954826 -0.0020591777 -0.0040574614 0.005019886 -0.0033133696 0.012550582 -0.0024124435 0.009728388 -7.885639E-4 -0.007828257 0.008053837 0.005085056 -0.0072470577 0.0041308925 -0.0015795886 -9.085739E-4 0.0027949149 6.066394E-5 -0.0011081487 -0.002470318 -4.2987632E-4 0.004976343 -0.0012827032 0.002783919 -0.007850526 7.094049E-4 -0.01771879 -0.008429173 -0.0018886473 -0.011116506 -0.006677119 0.002087037 0.0027976222 -0.01111112 0.0053975554 0.0023305297 0.011021442 -0.010659575 -0.00670654 -0.0030814046 0.011875206 0.00994423 0.00679097 0.010172045 -0.011340263 -0.0070033544 0.0046588294 -0.0012353478 -5.810682E-4 0.0019095448 0.0064576357 0.0057540834 0.0021284255 0.014845634 0.0029416794 -0.014057395 -0.002700645 -0.0016455946 -4.06068E-4 -0.005583399 -0.018191282 0.0016821886 -0.010770185 0.0036580982 -0.013772675 -5.4121134E-4 0.010279861 0.0050504194 -0.0038067556 0.014576276 -0.0029939145 0.0022197757 -2.9752037E-4 -0.015775453 -0.0010550801 6.0301286E-4 0.011329007 0.0035630453 0.0040234015 0.014837028 -6.814375E-4 0.01495463 0.0010620158 -6.066286E-4 -0.010526333 -0.012371266 -0.015597868 -0.0061219404 -0.0012388839 0.0061076996 0.01092745 0.01142642 0.008333021 -0.0011436291 0.005153066 -0.008462628 -0.0030336608 -0.002782135 0.006275168 0.016274896 -3.790204E-4 -0.0036513563 -0.002342075 -0.0021697588 0.004468679 0.0055815848 -0.003068668 0.0018955931 -0.0046703 -1.4625849E-4 -0.015440875 -0.0056081503 0.009434742 -9.1900746E-4 0.002341557 0.0039975485 -0.0053572105 -0.0103335045 -0.003642137
sent_15 -0.045675993 0.05081542 -0.048563752 -0.07177586 -0.045636334 -0.09393651 0.036139045 -0.03988234 0.03058841 -0.044099584 0.013737366 -0.005377719 0.0024718668 -0.06906101 0.019430347 0.005090732 0.0582867 0.02521594 -0.015836896 0.044124253 0.008931336 -0.07144746 -0.011606499 -0.044427734 -0.11139071 -0.012984177 0.028079871 -0.010396095 0.0928473 0.042399976 0.05197171 0.009894865 0.013246757 0.011805598 -0.046831273 -0.030208101 -0.03857519 0.106584534 0.02238843 0.037597664 -0.06693953 -0.021055838 -0.0083518755 0.08975211 0.0016614298 0.047267806 -0.11471769 -0.010655041 -0.036988 0.07833677 -0.005884371 -0.02527391 0.044267196 0.026493005 0.09279432 0.1321721 -0.012767084 0.009022579 -0.021621782 0.012894059 0.088692814 -0.018848525 -0.047910254 -0.0396796 -0.047728885 -0.018896753 0.042479977 -0.106972426 0.041967038 -0.015617781 0.011490576 -0.099788986 -0.03785976 0.066016346 0.1126208 0.013645822 -0.06852534 0.01950757 -0.02389125 -0.079797976 0.04703301 -0.020713652 0.076754585 0.047243897 0.012799953 -0.036393415 -0.04133559 -0.10133709 -0.055667713 0.033916723 0.054495152 -0.14861819 -0.003955354 -0.03597123 0.11440648 0.019239387 -0.035854086 -0.1294426 0.07217896 -0.04329051 -7.879353E-6 -0.02597967 -0.052823085 0.008230243 -0.025777537 -0.083467215 0.07388127 0.021048803 -0.10216705 0.034973282 0.014014691 -0.03422014 -0.011948974 -0.012870491 -0.11893437 0.057283778 -0.021735169 -0.057543978 0.04966363 -0.008145683 0.07668092 0.05893942 0.034215625 0.082554385 -0.05236145 -0.075723626 -0.003539337 -0.09165589 0.030123435 -0.0056472546 0.15668213 -0.03764879 0.010550067 0.03492534 0.018133838 -0.043740477 0.055965345 -0.08663405 9.270538E-4 0.049610164 -0.006186703 -0.03897974 -0.089523196 -0.07876969 -0.035978183 0.017558295 0.025737515 -0.10785568 -0.039836377 -0.02368622 -0.15120281 0.003802992 0.1620913 0.03700819 0.101160266 0.063808836 0.1389298 0.09460907 0.04468522 -0.0048088226 0.06692253 -0.0517201 -0.011633727 0.0029882416 -0.03516619 0.046672277 0.061796058 -0.034072734 0.012903385 -0.0463059 0.0876187 0.039812747 0.12874609 0.003133831 0.05166069 0.040925775 -0.004752185 0.035462745 0.043583155 -0.018526891 0.12929319 -0.070426814 -0.0048788656 -0.03570082 0.039378952 -0.07859413 0.05712372 0.05966915 0.049544547 -0.012966968 -0.032955334 -0.0065217167 0.079638705 -0.0025582681 0.023132117 7.0994045E-4 0.098228775 -0.10896094 0.12232301 0.03796994
sent_16 -0.009314661 0.015058003 -0.019268032 -0.040748153 -0.05861739 -0.08881057 0.079378724 -0.057310518 0.034416907 -0.006944673 -0.06390449 0.032961007 0.04966242 -0.03904403 -0.034650166 -0.03464009 0.084947936 0.0026397174 0.023068912 -0.031043742 -0.011837686 -6.297086E-4 -0.023015728 0.010922192 -0.00901545 -1.7236601E-4 0.048506554 0.035579372 0.057060994 -0.0019202147 0.011975905 0.016604606 -0.006066152 0.011890554 0.047330197 0.025835598 0.04470507 -0.02696185 -0.016732125 -0.03751831 -0.1152518 0.084997356 0.020993479 0.010588949 -0.011307933 -0.026227495 -0.008749098 0.044263687 -0.05363753 0.040281557 0.032833584 -0.053889144 0.012521678 0.02578356 0.09305877 -0.09140431 -0.020054579 -0.025609136 -0.040423755 -0.0016502378 -0.031930257 -0.025476534 -0.06266624 -0.036772188 -0.017706886 -0.045844134 0.07694978 -0.025218422 -0.010464448 0.055161286 -0.0042241127 0.015400602 0.018568816 0.08146284 -0.018738806 0.024474522 -0.0149263665 -0.02103445 -0.0050231377 0.011059806 -0.008373311 0.022800762 0.037855916 0.08186489 -0.014337327 -0.005666309 -0.014602535 -0.062049508 -0.08177951 -0.08427079 0.036954496 -0.026204498 0.019976307 0.010429204 0.02373616 -0.0055153635 -0.039832115 -0.009349819 -0.007236348 -0.0066100466 -0.088442765 -0.026847223 -0.052804124 -0.053712174 -0.06598009 -0.042884067 -0.041331176 0.042730775 -0.033969894 -0.0138858855 -0.026901912 0.017185763 0.053877708 -0.028933132 0.052943967 -0.021536557 -0.061837953 -0.048101503 -0.0031557074 0.012875112 -0.021468202 0.034192227 -0.013392391 -0.04310487 0.007234035 0.014033814 -0.018564245 -0.058242142 -0.016499165 -0.092468254 0.03555701 -0.002246012 -0.061505128 0.052941006 -0.017779198 -0.028686183 0.010573655 -0.04650839 0.02489222 0.09807609 0.034120854 -0.06057865 -0.08837201 -0.013326991 -0.041013483 0.03850031 0.005666933 -0.11524088 0.022217227 0.033856474 -0.015686028 0.053975347 0.08613762 -0.022989701 0.09838922 0.03056647 -0.016709158 0.09728813 -0.029179951 -0.022325492 0.0311924 0.024635457 -0.024855435 0.015138729 -0.123319775 0.05519202 0.020910073 -0.015235199 0.00984814 -0.0111210095 -0.042728543 0.030264951 0.0028403343 -0.09059251 0.045823496 -0.11802979 -0.0024873503 -0.006841446 0.050829895 0.027485097 0.024494488 -0.012648676 0.04158142 0.036839213 -0.021063372 0.0060761245 0.07541418 0.07508304 0.00998001 0.06313809 -2.2849102E-4 0.04938642 0.059156425 -0.0801184 -0.028410846 0.102186285 -0.06831422 -0.0083185 0.044657335 0.021205086
sent_17 0.12497984 -0.0628158 -0.12734187 -0.13448514 -0.13093664 -0.2285708 0.13706672 -0.16683155 -0.2478131 -0.101209655 0.25255924 -0.00594101 -2.1891772E-4 -0.026340608 0.12886608 -0.24043877 0.09452261 -0.2667253 -0.030079989 0.029511876 0.07046135 0.092828706 -0.27261674 0.02719121 0.22301507 0.08008029 0.26869732 -0.025495788 -0.3348001 0.12545045 -0.17482676 0.034660008 -0.09961603 0.016502125 0.05826812 0.12896727 -0.14724772 0.052636888 -0.112647675 -0.015859477 -0.055938486 -0.060933158 0.04051564 0.1139827 0.054061852 0.123578936 0.14764532 0.30016637 0.19833076 0.010662172 0.09983059 -0.059299476 -0.10590548 0.2350955 -0.064484 -0.3202602 0.08266629 -0.16117911 0.0792644 0.21673277 0.09001478 -0.13612239 -0.12770957 -0.25225213 0.3981269 0.2987051 -0.07350926 0.023100512 -0.10876087 -0.11955126 0.014002977 0.04614299 0.016527988 0.08367321 0.0019271084 0.105714075 0.13677059 0.09607124 -0.006152146 0.17293401 0.045794707 0.09257643 0.176604 0.074759595 -0.32697725 -0.044715397 0.24696118 0.14065221 0.13302082 -0.0038754262 0.029096967 0.1668011 0.10595508 0.09042755 0.013059933 -0.18367551 -0.14437123 0.22995408 0.091916956 0.2420053 -0.23849775 -0.15456222 0.17221169 -0.11195618 0.006417618 0.31880152 -0.17399077 -0.09763006 0.17368202 -0.10628659 -0.15335706 -0.031405758 0.20046906 0.10730642 0.19240206 0.03795004 0.027501725 -0.014176103 -0.190613 -0.2038071 -0.07357562 0.1298106 0.1384177 -0.3276076 0.07258189 -0.26577124 -0.3931345 -0.22799301 -0.18038408 -0.2753238 -0.09958102 0.009034854 -0.31712958 0.15019941 -0.1880513 -0.15398628 -0.15376803 -0.18752483 0.16316424 -0.31472617 0.086754546 0.15316601 0.009062113 0.30563423 0.05426522 0.06921207 -0.04394993 0.018231498 -0.105294846 -0.1956581 0.20336157 -0.14618759 0.009613179 -0.19668259 0.20834595 -0.020195028 -0.16433482 -0.11626524 -0.045932904 -0.06988048 0.21771626 -0.06699413 -0.11492945 -0.086557314 0.124049924 0.1328371 0.057976015 0.22585262 -0.0074050836 -0.23189035 0.17896664 -0.012432259 -0.14701657 -0.19455625 0.15384765 0.32568243 -0.05983238 -0.019650638 0.0042291144 -0.07244945 -0.08298413 0.08858484 -0.13312942 0.47746837 0.21132752 -0.036153294 -0.17935932 0.009446865 0.032852944 0.021246959 -0.12141528 -0.004350313 -0.2325605 0.20201328 -0.082956135 0.19792245 0.13118492 0.16299349 0.027062526 -0.062464923
sent_18 0.00734688 0.24073999 0.037573043 -0.03869238 -0.0035639182 -0.06582555 0.15024653 0.20928973 -0.34334365 -0.16240625 -0.1173443 -0.1586102 0.086631194 0.20356733 0.17129627 -9.669951E-4 -0.14820439 -0.07238514 -0.061049726 0.07612931 -0.13678722 -0.06331199 -0.080578685 0.06384703 -0.016257485 -0.08350142 0.17664671 0.03282471 -0.10255681 -0.08573523 0.015217246 0.22164257 -0.22327194 0.25500503 -0.22141935 -0.08954008 -0.12538348 -0.028655935 0.094143175 0.009401183 -0.0054160887 -0.23518895 -0.02831363 -0.11470064 0.07454647 0.016881254 0.060975857 0.13693202 0.097404495 0.14866786 0.16889475 -0.030691577 -0.18622434 -0.06118545 0.026448444 -0.12004777 -0.10316141 -0.036842983 0.053142976 0.017537719 0.035623915 -0.09916424 0.022167236 0.0066735945 -0.12905361 0.2793698 -0.2603881 -0.01973376 0.1506951 -0.10864927 -0.16210872 -0.14361162 -0.01343213 0.0681787 0.043528553 0.11425933 0.14154598 -0.075190276 -0.06935388 0.12150735 -0.12594962 -0.08482808 0.020026417 0.008702149 -0.24064344 0.108491205 -0.039534237 0.11397028 -0.2226722 -0.16564728 0.027414177 0.01068838 -0.21870467 0.079376206 -0.014048742 0.049788598 0.026938386 -0.032557063 -0.03825259 -0.01546947 -0.008447098 0.3065392 -0.056431916 -0.08971656 -0.09618453 0.047185976 -0.058880154 0.0883101 0.029313562 0.13229929 0.062405117 0.14881954 0.0033082028 0.00854843 0.18349008 -0.056360696 0.013920524 0.0777468 0.075333714 0.040467527 -0.1274727 -0.15718746 0.0075403573 -0.18229116 -0.08345482 -0.0012315073 0.117927104 0.09135731 8.7279564E-4 -0.14224789 0.10995468 0.023718353 -0.16512385 -0.15264389 0.06106994 0.012145753 -0.12651601 -0.07726347 0.028501378 -0.10491227 0.05355968 0.22260876 0.053170435 -0.032769658 -0.011371778 0.007843086 0.13020517 -0.029984023 -0.016122611 0.005905521 0.039615612 -0.16009459 -0.08928883 0.09871152 0.23415151 -0.13571382 -0.11715499 0.046653003 0.06411516 -0.1529721 0.0425719 -0.115925014 -0.25572523 0.08731897 -0.078721434 0.17314523 0.13589007 0.21066974 -0.0073620067 0.039959237 -0.04017776 0.048857212 -0.19965795 -0.0941083 0.0065859784 -0.06799386 0.19822492 -0.009509261 -0.2416883 -0.17135441 -0.13589674 0.018169168 0.017170792 0.042839345 0.1341766 0.014078452 0.02625948 -0.06558702 0.092852324 -0.030379165 -0.11613864 0.14076921 -0.0868556 0.0052873967 -0.13178183 -0.065764554 0.119764134 0.36510658 0.036280148 -0.04863075
sent_19 -0.15346016 0.030729398 0.14157473 0.023364596 -0.08660352 -0.27381214 -0.31837785 -0.31920496 -0.31427425 -0.0054457895 -0.23688897 -0.15863675 0.17003457 -0.23196496 -0.37283435 0.010951522 0.16181354 -0.009648475 0.29072106 -0.07929128 0.26388353 0.16657187 -0.17026961 -0.019443851 -0.21247895 -0.16998403 0.10277028 0.0834785 -0.12703986 0.023642665 -0.103909574 -0.15506545 -0.03374462 -0.19472808 -0.031043626 0.07090256 -0.07612456 -0.12717567 0.06785488 0.12809947 -0.19935076 -0.19564395 -0.011732623 -0.050643567 -0.05174936 0.10424122 0.03076039 -0.10449107 -0.0430754 0.015705636 0.18193738 -0.08171885 -0.06920008 0.19731161 0.31863207 -0.13776985 0.23110482 -0.3467153 -0.13056263 -0.22655052 0.276576 -0.05798067 -0.26052538 -0.14490508 -0.0066035492 0.35763228 0.464307 0.027108103 -0.14813115 0.1710277 -0.08855707 -0.058586758 0.23304914 -0.08198736 -0.02368103 -0.39375353 0.37594134 0.049265467 -0.01190975 0.20467298 -0.0549318 -0.11949568 -0.15594791 -0.03166394 -0.13691917 -0.21846136 0.16540857 -0.25371993 -0.09811534 0.37976202 0.28249323 -0.15069625 0.13462755 0.07886236 0.13150132 -0.5357654 -0.28429478 0.04568309 0.2758378 -0.33384383 -0.26364043 -0.4095608 -0.08513267 -0.08761476 -0.14265692 -0.11321409 0.040126402 -0.08386627 -0.04062997 -0.05519255 0.20585744 0.134085 -0.026923694 0.08515513 -0.029351702 -0.12552959 -0.20671326 0.012733206 -0.16650337 -0.40877917 0.23803203 -0.0558568 0.0847736 0.07602447 -0.010109869 0.20774835 0.055051275 0.037599813 -0.16676903 -0.43725157 -0.04513481 0.17602307 -0.061079264 0.04347328 -0.3641235 -0.14256923 0.036977924 0.20393713 -0.04516786 -0.06198051 0.26552448 -0.057752945 0.044900093 -0.16911454 0.17792763 0.010229019 -0.14279418 -0.10717866 -0.08314708 0.118436374 -0.14487469 0.08369581 3.6184234E-4 -0.14104201 0.3918788 0.031771995 0.15917346 0.23173615 -0.07441376 -0.052044433 0.11391261 -0.041683502 0.34486926 -0.004232959 0.082772754 -0.016118748 0.091279596 0.11077174 0.15080632 -0.16984735 0.11143745 0.24391273 -0.31464946 0.5033337 0.2082345 0.3853278 -0.08637907 -0.036550093 -0.16257167 0.14482911 0.20172341 -0.10216335 -0.08294797 0.1645567 -0.07653951 0.17057945 -0.12924208 -0.11382253 0.14081591 0.24969785 -0.047245804 0.10912079 -0.071727894 0.21197665 0.27200624 0.085619755 0.39644548 0.41764426 0.2263171 0.21865654
sent_20 -0.04468319 0.15836744 -0.0064093913 0.019257361 0.022944534 -0.10776635 0.06191832 0.12488643 0.035584737 -0.027519627 0.01952619 -0.10210515 0.089086756 0.17593917 0.014604676 -0.16329572 -0.1868882 -0.0558493 -0.12131917 0.118536845 -0.07247105 0.051546108 -0.11869258 0.08343373 0.062464993 -0.0076374956 0.19983874 -0.025903575 0.0068736523 0.008166744 -0.043361194 0.20258464 -0.098220766 0.080653094 0.03666978 0.06571634 0.09376965 -0.035301164 0.046430584 0.102231674 0.12988754 -0.06568516 0.032892674 -0.101918705 -0.10178234 -0.079916485 0.14765422 0.04504572 0.17179237 -0.0327528 0.118734464 0.040598027 -0.102694444 -0.075791255 0.02175836 -0.015840037 -0.06159185 -0.06642666 -0.009942352 0.088052236 -0.21706797 0.21514806 0.060125783 -0.08576077 0.074663356 0.14495164 -0.0056772414 0.10125788 0.07378956 -0.103253156 -0.047857717 0.06836797 -0.0653718 -0.0062375115 -0.0574484 -0.0018964523 -0.18348444 0.105982214 -0.05254747 0.054084025 0.06586246 -0.11893877 0.07753256 -0.057483412 -0.085031696 0.01525234 0.03656229 0.13720351 -0.10486935 -0.12777399 -0.0860301 0.042705975 -0.15413985 -0.15154976 -0.053855676 0.11143526 -0.060499262 0.033080377 0.033860765 0.046900067 -0.14275715 -0.111470096 -0.025413074 -0.06857886 -0.15545633 0.09617934 0.2034346 -3.0700114E-4 0.067107186 0.15241575 0.13423312 0.09467708 0.090526104 -0.070128806 0.068884894 0.20340642 0.048094895 0.039844785 0.07896642 -0.08506991 0.0053623356 -0.04006957 0.10544503 -0.19783501 -0.21229266 -0.056303374 -0.10713946 0.057075962 0.16536237 0.10028865 0.08917071 -0.14874718 0.094897196 -0.17711061 0.08750121 0.17231888 0.08478559 -0.1421829 0.23393627 -0.123626605 0.021452565 -0.08995379 -0.019031866 0.12419615 -0.093914546 -0.0048762024 0.18576461 -0.121366106 0.05871909 0.02560862 0.06943246 -0.30484104 0.054498095 0.06913553 -0.061983008 -0.017633677 -0.12354282 -0.05063901 0.022902906 0.008375704 -0.12957814 0.025755566 -0.17267746 -0.029021611 -0.20563745 0.19335723 0.014270358 -0.06368299 -0.07820176 0.17023805 -0.0026167147 -0.17826304 -0.031556316 -0.23358518 0.01394389 0.04437453 0.02329146 -0.016232952 0.037269577 -0.010277088 -0.12003002 0.05890042 -0.0695971 -0.030641248 0.07452738 0.04961828 0.039645102 -0.061176483 -0.019902563 0.0074536586 0.13856053 -0.019792829 -0.1707042 -0.01656661 -0.013703058 0.07374231 -0.12321157 0.02204656 -0.024164123 -0.05576199
sent_21 0.075912066 -0.12086821 0.029957948 -0.18978538 -0.10440403 -0.09092861 0.14651947 0.031890646 -0.0902528 2.7823606E-5 0.0031891065 -0.01903371 0.10208591 -0.11116267 -0.034206353 -0.10525126 0.23205608 -0.09232097 -0.019721532 0.08839047 0.00970543 0.04027262 -0.029829828 -0.07648248 0.12956284 -0.02914368 0.071026295 0.08356027 -0.15906553 -4.3811803E-4 -0.05881295 0.10330931 0.0030437056 -0.074823484 -0.01290724 0.15005812 -0.07752637 0.107710406 -0.13829774 -0.14578095 -0.108258106 0.14879294 -0.1270639 0.15201445 0.07242472 0.08929518 0.0070814984 0.15679719 -0.08170308 0.15207434 -0.0025805805 -0.07157671 -0.029933836 0.05978843 -0.031470623 -0.2271366 -0.03374358 -0.027246004 -1.999713E-4 -0.046273995 0.074068055 -0.15218349 -0.1378206 -0.021622468 0.044468235 0.116678715 0.089936346 -0.0070995525 -0.040687878 0.08170701 0.04667193 -0.093884416 -0.01734565 0.04498112 -0.04557149 0.18757664 -0.03555903 -0.11634497 0.028725166 0.14260738 -0.04440019 0.113043256 0.043442085 0.1256202 -0.09800324 0.016682813 -0.0081475135 0.061029915 -0.030365348 -0.11246326 0.17666729 0.11338798 0.040344745 0.14838967 0.016273476 -0.036753632 0.009590886 0.04798573 -0.104234554 0.0068860017 -0.029848289 -0.12633708 -0.042716067 -0.13637726 0.029921247 0.17555799 -0.17455971 0.19102593 0.09684697 -0.11167655 -0.06433162 0.084258765 0.039891023 0.029571755 0.22882098 -0.058481917 -0.16506433 -0.20906638 -0.0337263 -0.07696926 0.003732949 0.036523163 -0.14602108 -0.21912308 0.015295195 -0.029573731 -0.0854317 -0.3365868 -0.18517025 -0.20291758 -0.015722292 -0.059730526 -0.18120982 0.14887993 -0.11372855 -0.19951074 0.07367603 -0.02645783 0.067844115 -0.017786346 0.13419819 0.21356082 -0.014522633 0.15581766 -0.012140071 0.053978365 -0.024317633 -0.05675583 -0.090548016 0.009532522 -0.11931754 0.14270207 0.018462377 -0.084355906 0.27737573 -0.050960306 -0.16352443 -0.0032152054 -0.0778384 -0.061879367 0.13325788 -0.05156398 -0.11646776 -0.10210859 0.071063355 0.020074697 0.03087388 0.18041518 -0.04735633 -0.07376994 -0.08947632 -0.0043216366 -0.007247414 -0.25645056 0.1756584 0.027251614 -0.0027606639 -0.099822454 0.12898803 -0.102789916 -0.11682787 0.017805189 -0.04957736 0.14975029 0.021763394 -0.27057216 -0.055321164 0.05952518 0.015287865 0.049721174 -0.14910117 0.25196314 0.077827275 -0.12635887 -0.10362171 0.092317544 -0.057142496 -0.022171007 0.14980142 0.08607597
sent_22 -0.1376537 0.075131245 -0.07595717 0.08040166 0.12092926 -0.0034227988 -0.13702124 -0.025209356 0.13542818 -0.034125086 0.08443484 -0.042298313 -0.11038635 0.06854517 0.068499066 0.018690962 -0.10544121 -0.012942876 -0.030348025 -0.018431408 -0.0444258 -0.10221202 -0.054726113 -0.04021547 0.02880045 0.13426574 0.07943694 -0.057841826 0.030680139 0.10860904 -2.583119E-4 -0.04069642 -0.03008663 0.04860428 0.007665934 0.07620877 0.056295406 -0.08719933 0.08485689 0.03223131 0.097217366 -0.061027333 0.1007959 -0.06078499 -0.039177448 -0.09688455 0.026412858 -0.08671554 0.12512384 -0.08376004 0.038593367 0.17525168 -0.0041244156 0.07359738 6.5059925E-4 0.110035606 -0.052802324 0.06507403 -0.03592903 0.06142095 -0.07408973 0.07633024 0.09757625 -0.03334843 0.122640595 0.075840525 0.05721988 0.01755882 -0.0076082284 -0.07609116 -0.050440513 0.079365335 0.0046445867 -0.01086801 0.012381677 -0.114889905 -0.06411301 0.10059952 -0.08134929 -0.069968924 0.085331015 0.01236525 0.0057194224 -0.12881425 0.042523682 -0.028357422 0.047474932 0.044420708 -0.04223156 0.102414444 -0.023787014 -0.08657371 -0.011842133 -0.11420735 0.032574765 0.01167324 -0.07184447 -0.017511373 0.09532546 5.7655363E-4 -0.067621976 -0.05047419 0.0064734085 -0.02783125 -0.018895065 -0.030461714 0.16095525 -0.14576487 -0.019720543 0.032719962 0.085952416 0.037433524 -0.01852956 -0.03905 -0.09125918 0.17253834 0.1412583 0.06807237 0.0670969 -0.0026509326 0.044217743 0.008838252 0.23858179 0.14427228 -0.06724497 -0.11015011 -0.12007784 0.054934844 0.18730879 0.17251675 0.11561555 -0.11089417 -0.002605223 -0.15564634 0.012633899 0.13101053 0.12414005 0.003361962 0.029819122 -0.039440613 0.027313592 -0.106888555 0.06115523 -0.05452153 -0.0010055021 0.018785788 0.10915532 -0.003808478 -0.04510014 -0.037423335 -0.025984585 -0.08187814 0.05639144 -0.037035383 -0.13950485 0.15136725 0.07060132 -0.08638126 0.064866245 0.053400524 -0.055958826 -0.015599663 -0.0015930926 0.074531116 -0.18873447 0.008818977 0.016023273 -0.12954532 0.018485965 0.04558393 0.0994121 -0.15317412 0.047000363 0.029095236 0.038437963 0.027078431 0.0014769544 0.12508707 -0.033672206 -0.009229903 0.05982148 0.0123465825 0.017003754 0.00183183 -0.06483697 0.037204046 0.05044318 0.017320804 -0.028115904 0.017546723 0.16137502 -0.15357408 -0.00711778 0.13490802 0.10210192 0.08073343 0.0058050025 -0.13499656 0.0072337314 0.007303825
sent_23 -0.112044565 0.025022352 -0.06378297 0.060273737 0.08767358 -0.022508822 -0.1180619 -0.026499843 0.106930695 -0.062309247 0.05251485 0.0019320704 -0.058508866 0.022648565 0.02195909 0.019673934 -0.0883451 -0.022862265 -0.01789242 0.009894555 -0.04432745 -0.10464279 -0.048789505 -0.021364314 0.07384646 0.122892015 0.06583813 -0.04197983 -0.038552936 0.096424624 -0.030316778 -0.04530049 0.008111832 0.05133702 0.0074475063 0.12092055 0.052027334 -0.060275976 0.056260996 0.0016185066 0.062480956 -0.029973073 0.09164503 -0.05351724 -0.05685789 -0.09534989 0.020800509 -0.021894725 0.12546566 -0.040690895 0.03965476 0.15545918 -0.0017436434 0.028017107 -0.0064463206 0.09067685 -0.045804147 0.044959985 -0.07392016 0.032379497 -0.04162272 0.07687952 0.04269511 -0.0656364 0.09923995 0.047628555 0.11293864 0.01284186 -0.03163829 -0.042060163 -0.036359694 0.034224275 0.004769396 -0.028134273 0.0235853 -0.094293304 -0.07882485 0.08324949 -0.06292656 -0.0826835 0.0349918 -0.039477207 0.023991419 -0.10650214 0.02462264 -0.02272794 0.036037922 0.07277558 -0.038945127 0.050223764 -0.016697545 -0.042031024 -0.005891042 -0.12378693 0.033423938 0.020041259 -0.08727066 -0.029248595 0.05945642 -0.010891893 -0.08911571 -0.0792839 0.035475627 -0.0485556 -0.062196784 -0.056203276 0.11554256 -0.11485117 -0.009839538 -0.008556483 0.052575693 0.04579199 -0.005386257 -0.046353724 -0.10775909 0.19087103 0.064516604 0.04243517 0.024636002 -0.04975045 0.0470285 0.029099837 0.22122638 0.08016935 -0.044288605 -0.071062654 -0.1287721 0.049952056 0.10559963 0.13338658 0.11759 -0.1065305 0.050381076 -0.11240616 -0.0077174976 0.11277758 0.09773031 0.04269229 0.057408545 9.843258E-4 0.04423865 -0.15135543 0.046010226 -0.036053278 -0.007172374 0.015846482 0.14551345 -0.032099415 -0.009248067 -0.015238939 -0.0049014194 -0.02553611 0.07878976 -0.05572247 -0.12118864 0.1594251 0.03724456 -0.052370578 0.036879346 0.06994304 -0.036623467 -0.0074929115 0.03220649 0.045802552 -0.1697363 0.035821054 -0.022973135 -0.15976301 -8.7201095E-4 0.014016508 0.084296994 -0.12581117 0.04639817 -0.01956932 0.07015066 -0.0064050956 -0.04754792 0.10215394 -0.017948046 -0.031302653 0.053994924 0.025055598 0.012457787 0.0037614875 -0.09221301 -0.015860278 0.013719285 -0.0076413113 -0.002168292 0.01760306 0.13784285 -0.104789235 -0.013303854 0.09985015 0.0628795 0.08799561 -0.02867346 -0.13602506 0.029994939 -0.020693822
sent_24 -0.025760563 0.031005738 0.011691728 0.028241344 0.014383826 0.02605696 -0.09994267 -0.050366346 0.11490045 0.09504202 0.059184983 -0.054831013 0.06230513 -0.038890984 0.07262642 -0.19519785 0.01293537 0.003332704 0.07666255 -0.10721471 -0.112414934 0.10966036 0.07194913 -0.04741973 -0.122366816 0.0055714613 -0.13344876 0.11898562 0.083603986 0.11136297 -0.11407657 -0.071429715 -0.17201729 0.06401258 0.3292328 -0.08407467 0.013650564 -0.01337032 -0.102352574 0.14023939 0.12877096 0.05257043 -0.038758848 0.11485735 0.057850756 -0.031346023 0.019636359 -0.1348017 0.040879626 -0.14487533 -0.16915247 -0.035302863 -0.033527885 0.053742476 0.04005944 -0.046528745 0.031468324 -0.10046776 0.17548312 0.15637901 -0.055931583 -0.0033240383 0.022605548 0.007580068 0.07650413 0.1054873 -0.046407685 0.061105 -0.17479163 -0.027084332 0.0019939179 0.23468725 0.06805953 0.012845639 0.022893624 -0.003547889 0.03753751 0.19777986 -8.3342474E-4 -0.014842724 0.1538053 0.077034585 -0.029943505 0.07728385 0.085172385 -0.09436828 0.023881724 -0.092592806 0.18844317 0.11817797 -0.035537202 -0.0109564755 -0.0017838086 -0.0721523 -0.05431653 -0.07787361 0.1744762 0.05289392 0.13811769 0.009658698 -0.11411952 0.001814786 0.13726185 0.051104516 -0.04189174 -0.017982995 0.040598456 -0.12828574 -0.054983117 0.091704756 0.05787244 -0.0022016198 -0.073199995 -0.0208543 0.07712902 -0.0574759 0.12189638 0.036341 -0.02999671 0.0022703286 0.052490547 0.035061497 0.12569867 0.15238927 -0.06699268 0.1360183 -0.18551657 0.1394559 0.060165036 0.076085776 -0.14339343 0.029042602 0.094992444 0.015615389 -0.1369242 0.18197225 -0.047263794 -0.023952365 0.027750539 -0.053081583 -0.020386951 -0.028605128 0.035264786 0.065341085 -0.028086087 0.01020534 -0.181473 0.078544475 0.09344075 -0.03438078 0.012991315 -0.1571733 -0.063623875 -0.034685757 0.008616034 0.01890139 -0.00791893 -0.1607318 -0.06329534 -0.015416538 -0.26089582 0.03174091 0.046179913 -0.0680076 0.14865124 -0.0163063 0.21676181 0.083804235 -0.019540114 0.012083574 0.07640481 -0.065776534 0.026551938 0.060462974 -0.09675841 0.127462 0.024764916 0.22104612 -0.011207283 0.029696506 0.031534348 0.10716346 -0.05013839 0.10743974 0.124028906 0.31701672 -0.038290314 0.028219068 -0.08985549 -0.003857087 0.094936706 0.061593328 -0.045892075 0.21060774 0.1787135 -0.012375454 -0.017877083 0.043234643 0.013087079 0.032415584
sent_25 0.23281427 -0.06374114 0.1579155 -0.010783749 -0.34948337 0.17727308 0.10184682 -0.44901612 0.089593664 0.1658074 -0.2642667 -0.36316645 0.48915422 -0.1557944 -0.32211176 -0.23010115 0.018354602 -0.24701788 0.2534567 -0.043837313 -0.20064503 0.3420405 0.059193913 -0.13536313 0.16111036 -0.08979924 0.19378713 0.05898131 -0.2009335 -0.32151523 -0.078129396 0.45132366 -0.16810657 -0.22917585 0.2843209 -0.2109456 -0.03393714 0.026608119 -0.039832525 0.0071466197 0.10920807 0.13022901 -0.07186808 0.022807652 -0.034011696 0.03533969 0.42161137 0.024623675 -0.08932037 -0.017569564 0.07563094 -0.08778829 0.01375243 -0.27531505 0.06711462 -0.20461087 0.052986797 -0.30129346 0.13877334 0.20398222 -0.14157145 0.31167424 -0.24824835 -0.3150394 -0.09070618 -0.30227658 -0.2148161 0.099655196 -0.250179 0.0809159 -0.026960406 0.026623614 -0.18081562 0.010371683 -0.21423036 0.12428705 -0.16389497 -0.02436395 0.24835084 0.1889694 -0.018555935 -0.18402106 0.022391198 0.25036797 -0.0016475427 0.13199955 0.09372302 -0.272958 0.36474007 -0.0071460037 -0.046639066 0.10763321 -0.16897641 0.06670881 -0.13055067 -0.16632749 -0.030173445 0.06479918 -0.2584486 0.07369594 -0.030517023 0.04541921 -0.13142608 0.17638344 -0.01882386 0.010317424 -0.07783755 0.13881811 -0.062488098 0.31879288 -0.04855714 -0.03952211 0.4601547 -0.06702062 0.041122098 -0.3987522 -0.06697899 -0.04032469 -0.12338374 0.050074898 -0.16542558 0.019309264 -0.16792871 -0.24388188 -0.21660528 0.08864543 0.07749092 0.11774907 -0.18609267 -0.08968708 -0.5940835 0.22516991 0.21184023 0.3026472 -0.21221587 0.121840686 -0.34439415 -0.2464197 0.22098163 -0.20945822 -0.08670287 -0.123367414 -0.040445358 0.11259964 -0.23235889 -0.45978686 -0.4084154 0.28966743 0.19558068 0.022846006 0.16572677 -0.4229617 -0.40612543 -0.13287878 -0.10302131 -0.4990561 -0.05132012 0.207953 -0.104805954 0.12583496 -0.03616854 0.2147366 0.1957128 -0.36791155 0.29241982 0.09066824 -0.014003487 -0.04535585 0.18046686 -0.09085736 -0.028152332 0.2980553 -0.021948814 -0.14781915 -0.12801266 0.3733481 -0.38125202 -0.052796356 0.027685082 0.22235599 0.015310156 0.15270938 -0.17843243 -0.087736994 -0.0405181 0.32957113 0.033044945 -0.37091565 -0.21507595 -0.1688698 -0.32769164 -0.016883839 -0.27022532 0.05988685 0.010569574 0.09340176 -0.10092845 0.112528935 -0.14930074 -0.21446638
sent_26 -0.0928648 0.13411519 -0.03480425 -0.0873777 -0.0029618691 -0.19242512 0.080259755 -0.014842984 0.03400656 -0.02527714 -0.014696954 -0.0035194778 -0.028847648 -0.06773018 -0.04487075 -0.005043937 0.15428458 -0.049433626 0.05300038 -0.06634876 0.07146405 0.03395642 -0.09392266 -0.062076192 0.039864987 0.06089985 0.14303026 -0.092385836 0.03043977 -0.083001204 0.05491222 0.08308427 -0.025157077 -0.11696049 0.0050059496 0.15666285 -0.025405142 -0.06473017 0.087836735 0.014771828 0.028156843 0.07437476 0.08361141 0.065407865 -0.008130662 -0.01914887 0.04880336 -0.06372823 -0.06527578 -0.0053562834 0.09448541 0.02676758 -0.012732168 0.104544565 0.20223263 -0.021386206 0.033579994 -0.022931492 -0.0034467196 0.04807359 -0.001494163 -0.0614881 -0.041927494 0.0030814875 0.0604905 -0.06699569 0.05183369 0.029884558 -0.007707035 -0.042235535 -0.012297039 0.046559986 -0.031728607 0.0020021887 -0.009397201 -0.042833198 -0.039621793 0.07197051 -0.030964749 0.06500835 0.08479151 0.045394864 0.009457185 0.020951271 -0.059095833 0.024416253 0.12748317 -0.03678651 0.0123010175 0.054187838 0.18930538 -0.050329857 0.029329605 0.05850931 0.023489822 -0.12264212 -0.08141564 0.037421364 0.04679461 -0.08892501 -0.11048601 -0.11896852 -0.09933887 -0.028114157 0.0015113881 0.071740896 0.048184127 0.03656981 -0.14241756 -0.074863784 -0.058920298 -0.036536656 0.16523588 -0.01436962 0.049776986 -0.05864702 0.0264232 -0.08134069 -0.025534727 -0.13558379 -0.09434328 0.113210194 0.024224123 -0.026348164 0.007359815 -0.14364639 -0.13295183 -0.21374717 -0.022682175 -0.055276852 0.1332004 -0.09956153 -0.14901023 0.15452284 -0.052022938 -0.059489332 0.06143935 -0.11335083 0.08033932 -0.054130245 0.06767597 -0.06518695 -0.07128308 -0.023927895 0.056876644 -0.027602632 -0.03445383 -0.029186413 -0.10135356 0.019648686 -0.10709119 -0.024436561 0.038078252 -0.052381676 0.12977542 0.008153674 0.031273466 0.12183823 0.018827636 0.08194262 0.13431607 0.011754587 -0.056490827 0.014275339 -0.18023643 -0.097067036 0.0037919497 0.033059854 -0.042655017 0.11475565 0.03900949 -0.055268962 0.121427126 -0.0193138 0.17847879 0.083607994 -0.0039945533 -0.021316288 0.10836994 -0.015507222 0.11080728 -0.026499132 -0.024305675 0.009771849 0.031073958 -0.027118675 0.12336464 0.07100987 0.012426871 0.02077343 -0.050875653 -0.05017905 0.046735242 -0.033495132 -0.0028932823 0.16967794 0.03476846 0.006257519 0.11873359 0.092228554
sent_27 -0.18206117 0.412542 0.013108729 -0.09540848 0.12593605 -0.22197647 0.1935021 0.5520925 -0.34106496 -0.20372763 0.16482323 -0.07707162 -0.055709936 0.0938628 -0.030408738 -0.27435046 -0.25940523 0.14854068 0.07499346 0.11672716 0.24258533 0.2904474 -0.15386097 0.24219596 -0.13946329 -0.29117784 0.20935798 -0.048134804 -0.37726134 0.047391698 -0.011285629 0.084902056 -0.16141893 0.117217734 0.07039826 0.26909322 -0.04163288 0.07815821 0.0027643088 0.4104262 0.2084495 -0.38217235 -0.14952177 0.018440945 0.12523565 0.12753488 0.09008395 -0.1132411 0.21324858 0.061445456 -0.123727605 -0.113505855 -0.31071424 0.01895996 0.18375535 0.010383076 0.28112575 -0.15060906 0.08559758 0.13270858 -0.02766457 -0.29296732 0.09632278 0.017001135 0.12484243 0.6718594 0.06507094 0.06268085 0.08158762 -0.11262908 -0.119982734 0.19692953 -0.005051958 -0.29404235 0.117445946 -0.07071882 -0.04462059 0.40736842 -0.008833707 0.08669255 0.002567861 -0.23575787 0.15002458 -0.05725398 -0.29816312 -0.16727069 0.05165971 0.15265381 0.14515316 0.12918025 0.040830772 -0.082830735 -0.14698596 0.03520446 -0.06454628 -0.21990907 -0.07437514 0.22030774 0.39456618 -0.071558446 -0.18774885 -0.30772623 0.2581829 0.16931112 -0.25873598 0.38214645 0.10613448 -0.11985926 -0.11154031 -0.08096232 0.24073964 -0.14704023 -0.30005077 0.19347358 0.08542162 0.1156811 0.08807575 0.07949408 -0.13620305 -0.6513826 0.22235422 0.080284454 0.14507127 -0.18507645 -0.16857967 -0.024407309 -0.081973456 0.0054693744 -0.10160018 -0.06528506 0.3302202 -0.38783628 0.055533614 0.011199483 -0.04250611 -0.22794573 0.2351088 -0.1276793 0.29215357 -0.52209365 0.24473046 0.06955839 -0.07594044 0.3649439 0.40242955 0.17516011 -0.07175753 -0.054070916 -0.11261751 -0.1306314 0.10031182 -0.084360145 0.16443081 0.050163873 0.35144427 0.08853447 -0.037807483 -0.2894979 -0.11582309 -0.0016920412 -0.22913235 -0.30212185 -0.19515075 -0.108750954 0.26892507 -0.040319417 0.13804755 0.19860876 -0.47569236 0.37315023 0.11460531 -0.27864966 -0.107654594 0.2903089 0.13862832 0.38066384 0.008887227 -0.22092701 0.18141267 -0.10718761 -0.29069972 -0.02547633 -0.23116612 0.04113808 0.38896748 0.07435089 -0.33039647 0.032622807 0.09223343 -0.12761089 0.0889095 0.09040956 -0.39785695 0.122079454 -0.026936669 -0.24407357 0.23615673 0.5004082 0.07851469 0.14217111
sent_28 -0.15274274 0.04933076 -0.14250578 -0.19004562 0.06906122 -0.1428267 0.09316075 -0.06128802 0.00938499 -0.24775004 0.2704237 0.13013135 -0.28450528 0.11121417 0.25349262 -0.05690191 0.015003758 -0.19019422 -0.25655735 -0.06368156 0.12696294 -0.15878764 -0.1572913 -0.017609844 -0.04331909 0.16485359 0.13236584 -0.039738026 0.042758804 0.15804389 0.087818824 -0.0037177927 0.030863322 0.07957862 -0.22266144 -0.019325392 -0.11009289 -0.06446865 0.050150048 -0.089392155 -0.18536183 -0.11774865 0.038544614 -0.024287933 0.15739515 0.06537922 -0.04202995 0.026362512 0.12967294 0.044444755 0.0913304 -0.0059819724 -0.14157622 0.38134417 -0.086866 -0.21717997 0.049127456 0.08557267 6.661792E-4 0.020678185 -0.045266625 -0.26668012 -0.05727278 0.04166697 0.20919724 0.17528833 -0.03301322 -0.18872516 0.117112115 -0.08253215 -0.054243285 -0.114178956 0.08482208 0.12360912 0.060216457 -0.018227287 0.0075228848 -0.13584703 -0.13879222 0.0043303682 0.07720755 0.25788382 0.15626451 -0.0027420835 -0.14051148 -0.08120037 -0.051302325 -0.117233306 -0.35406995 0.03718869 -0.025795136 -0.035181165 0.061044265 0.11520852 0.1831732 0.06703305 -0.069178075 -0.013954469 0.0736192 0.08298357 -0.08964516 0.11411096 -0.036551435 -0.21227896 -0.011347303 0.10086744 -0.12626132 -0.14065482 -0.0115703 -0.04035789 -0.013301767 0.11391309 -0.092839934 0.09244634 0.18698786 0.08300986 -0.043095525 -0.025197921 0.04157026 0.08096256 0.038486075 0.08358166 0.15021008 0.010273675 0.08599439 -0.30172443 -0.09050763 -0.1952239 0.05251693 -0.1437196 0.19897859 -0.18555182 -0.4941883 -0.052107174 0.27713948 -0.23508018 0.057508163 -0.1457236 -0.059368934 0.03845117 0.14883046 0.08858724 0.038153306 -0.18453749 0.094144136 0.081970185 0.029436538 -0.13883466 -0.1723489 -0.1960014 -0.07379005 0.18739384 0.23206075 -0.06680581 0.14718848 0.11963763 -0.02192908 0.052596692 0.010973217 -0.2491161 0.30594644 -0.22108078 -0.15895475 0.2196751 -0.16388638 -0.076408125 0.06897042 0.06216184 -0.04894136 -0.115980215 -0.061785154 0.050847333 -0.105668545 -0.057473194 0.044291273 -0.060498044 0.004250831 -0.05434864 -0.024881888 -0.095509395 -0.028702067 -0.051487874 -0.004022845 0.23799253 -0.024749553 -0.18826962 0.1909011 0.19779062 0.14080255 0.16775267 0.09716705 -0.018497314 0.11948169 -0.023640286 -0.065365575 0.12001531 0.044766825 -0.16179876 0.03612938 0.037505046
sent_29 -0.102539584 0.14246334 -0.09184081 -0.089256704 0.05434438 -0.24164514 0.08584571 -0.051321846 0.16609293 0.007273897 0.14196128 0.083826534 -0.15982166 0.052094534 0.088043444 -0.037335496 0.13667887 -0.06514149 -0.17318508 -0.13038139 0.10391713 0.029675689 -0.107979156 -0.0067248815 -0.14249992 0.13197856 0.07175287 -0.11886751 0.3214308 0.04271748 0.053907666 0.07031441 0.03909094 -0.13393465 0.031842183 0.031401984 -0.006548577 -0.0541933 0.087415844 0.050660107 -0.010815013 0.07401503 0.0986163 0.041570432 -0.038370784 -0.04732621 -0.025461594 -0.1626617 -0.06331344 -0.070341386 0.07575501 -0.051542506 -0.04016217 0.23936462 0.12433369 -0.0150078945 0.01380191 0.027648497 0.08484694 0.034113657 -0.09429634 -0.087283365 -0.05220036 0.109297864 0.12466712 -0.08851322 0.017482052 0.032390393 0.11159579 -0.080026954 0.02500251 0.06566981 -0.004620352 0.05808825 -0.014703603 -0.11436715 -0.079278864 0.03597556 -0.09519751 0.033610247 0.16733089 0.21296203 -0.0042452444 0.039463565 0.03602878 -0.012450409 0.12612031 -0.09755249 -0.08070632 0.03247977 0.0991915 -0.08388788 0.053022213 0.01769742 0.06141818 -0.037352256 -0.043135248 -0.013058706 0.10433996 -0.01162633 -0.13789675 -0.067086115 -0.12705173 -0.117665455 0.013490015 0.0779143 0.094841056 -0.068478175 -0.15800712 -0.050243363 -0.026617805 -0.021982547 0.074504025 -0.03339034 0.10259721 -0.022336088 0.05145404 -0.054840032 0.02647297 -0.008087065 -0.055011 0.13391718 0.024517728 0.03823969 0.047644407 -0.212205 -0.1284794 -0.22972526 0.1042842 -0.031121008 0.19477221 -0.1143953 -0.19643645 0.055081725 0.18578412 -0.040457457 0.048536263 -0.17611302 0.028039029 0.054650035 -0.009430113 -0.046850074 -0.071690924 -0.12934679 0.021498894 -0.024301987 -0.021901822 -0.10089892 -0.10309896 -0.035441272 -0.11150006 -0.0128464345 0.14623839 0.010608341 0.08420513 0.081376106 0.03942973 0.11487373 0.07152615 -0.050512902 0.18248272 -7.8843936E-4 -0.106507726 0.075029664 -0.25490505 -0.17071724 0.07657439 0.052921847 -0.056967597 0.12835214 0.034271184 -0.057987098 0.20114014 -0.052309357 0.075038075 0.02111252 0.12168308 -0.015482849 0.08417818 0.02347483 0.15466742 -0.0899759 -0.044760805 0.023317676 0.07118514 0.007554926 0.25834346 0.13737477 0.016793467 0.09520688 0.047791835 -0.06918815 0.10167134 -0.05089445 0.0047039096 0.19904085 0.02192407 -0.1039017 0.06529625 0.13320714
sent_30 -0.12750661 0.14186272 -0.085283384 -0.20939253 0.015907504 -0.2560403 0.14366083 -0.076147415 0.2754476 -0.11346864 0.20385751 0.23087205 -0.1543706 -0.02393371 0.046943285 -0.15507087 0.1963203 -0.0712062 -0.107418835 -0.22999813 0.25574648 0.13079722 -0.1967335 0.0058636614 -0.26165843 0.049194206 0.05006425 -0.1343126 0.23476079 0.03887858 0.02433238 0.032793224 0.071177274 -0.17223738 0.09880957 0.0729987 -0.053603116 -0.045249335 -0.0035507996 0.11075438 -0.010987096 0.024497515 0.0028737325 0.12704147 0.077856116 0.012627365 -0.09699413 -0.23687263 -0.07522502 -0.0486015 -0.048994187 -0.12680228 -0.120345056 0.27835584 0.14748211 -0.1211649 0.24764913 0.05867628 0.1128429 0.15257367 -0.14525813 -0.21187425 -0.14874668 0.11287279 0.13479577 -0.07980171 0.06482178 -0.09136368 0.14142206 -0.00653354 0.026391858 0.14500363 0.075618915 0.10234372 0.014403127 -0.093648 -0.11522515 0.14396034 -0.03127022 -0.0075979508 0.22077708 0.23031081 0.03035587 0.05624997 -0.01941376 -0.101305634 0.0682638 -0.21199174 -0.07203533 0.114327826 0.020681158 -0.05776001 0.08602704 0.029567227 0.045135096 -0.077536695 0.010447729 0.036852587 0.24589509 -0.019039756 -0.27510864 -0.14927123 -0.042557772 -0.019370832 0.028762026 0.14916575 0.033053126 -0.06617655 -0.21300574 -0.1276576 0.036698367 -0.12730888 -0.0332154 0.0694313 0.13956426 -0.043937497 0.008037074 -0.11124095 -0.09423599 -0.13413827 0.022886353 0.28063092 -0.009664257 0.006572761 4.6468157E-4 -0.2037107 -0.20234047 -0.2838817 0.057568092 -0.106619366 0.26652926 -0.21509612 -0.34390488 0.16879831 0.22681826 -0.15796885 0.09546471 -0.2054749 0.011263809 0.052503347 0.07679458 -0.103495836 -0.11548556 -0.055998992 0.112673916 0.041328486 -0.16859165 -0.15070128 -0.08695258 -0.12781891 -0.08745564 0.10325689 0.2800315 -0.0025534348 0.09079911 0.12608093 0.030305129 0.048016347 0.025658453 -0.11252681 0.17076823 -0.077633865 -0.0661842 0.035433564 -0.17338447 -0.24984482 0.06366434 0.049576495 -0.12425853 0.10939825 -0.030097649 -0.0507926 0.1456604 0.05541685 0.06045689 0.10499385 -0.047982544 -0.11891772 0.18721896 0.06348471 0.050141845 -0.09905532 -0.09339237 0.13007593 0.06509058 0.110416755 0.24188587 0.24555777 -0.0056282496 0.12603627 0.11554702 -0.067693785 0.06074095 -0.09003627 0.04958511 0.21231906 0.03505217 -0.14516081 0.07006337 0.15149768
sent_31 -0.03855584 -0.1570002 -0.014934731 -0.13850439 -0.043697745 0.17351624 0.053197734 -0.23998167 0.33247855 0.044793542 0.17879756 0.07352534 -0.20881154 0.026250048 0.13259518 0.05497706 0.20991367 -0.07206536 -0.007159095 -0.092010565 0.09749177 -0.13756622 0.0091946535 -0.2013842 0.05158531 0.032407496 -0.027319383 -0.014585166 0.11836531 -0.028241565 0.20459124 -0.05842635 0.07465856 -0.17784213 -0.2101604 -0.0850752 -0.044495717 -0.076824345 0.0012841041 -0.1910611 -0.13647383 0.11618437 0.0040991753 0.10917638 0.21008465 0.10339455 -0.100939825 -0.014407846 -0.15474048 -0.069350034 -0.043647345 0.04543796 0.10219952 0.20484063 -0.060205705 -0.082882345 0.0440223 0.198235 -0.12573741 0.07219582 -0.081739224 -0.096487 0.05774606 0.042083405 0.049558118 -0.15705247 -0.024107026 -0.19470204 -0.043616526 -0.04612698 0.11047911 -0.012923144 0.021363383 0.26033643 -0.053341344 0.12615061 -0.08989152 -0.18730058 -0.014439133 -0.10347699 0.13960192 0.28635705 0.18333313 -0.021082606 -0.015135728 -0.04413084 -0.14852595 -0.26918858 -0.12730855 0.0703933 -0.05839743 -0.15466869 0.18280162 0.19619432 0.09302118 0.1050958 0.028459238 -0.0031475972 -0.10350671 0.06696942 0.24985504 0.11384853 -0.1729718 0.08864772 0.25725552 0.04253567 -0.077949524 0.119632855 0.11734463 0.097703405 -0.12506676 -0.07383645 0.10922365 0.15666415 0.14987603 -0.11525315 -7.783478E-4 -0.10316426 0.16759573 0.36330274 -0.029526543 0.08126148 -0.14366624 0.12870558 0.013860744 -0.31173936 0.055588223 -0.35008666 0.17142637 3.7743693E-4 -0.10401915 -0.027251162 -0.5177911 0.022582464 0.08696977 -0.2615522 0.27670744 -0.20963548 -0.16977729 0.07731803 0.05511239 0.09516069 0.048123896 0.0014064313 -0.11340109 0.10861329 -0.21658133 -0.007860375 -0.24794464 -0.10148072 -0.17141883 0.16575886 -0.032253303 -0.05044926 -0.08679062 -0.0043859906 0.18024373 0.04582607 0.014410411 -0.087626755 0.19906552 -0.057895403 -0.05975648 0.097229384 -0.10512481 -0.14711694 -0.085582644 -0.016758302 0.16926314 -0.19841439 -0.18360136 0.018872432 -0.08919295 -0.00786625 -0.053351574 -0.0764908 -0.13444625 -0.075112954 0.19363408 0.15335703 -0.018160552 -0.055065814 0.14488669 0.1295139 -0.11976711 -0.150177 0.19576634 0.34099802 0.051719826 0.122553125 -0.018946122 -0.12115446 0.27170473 -0.18438025 0.065135024 0.08061954 -0.03909353 -0.43485472 -0.14183618 0.040026143
sent_32 0.024762748 -1.1358869E-4 -0.03233584 0.06803467 -0.060693134 -0.022357943 0.010933215 0.04124777 0.07877723 0.158939 0.13352714 -0.1472281 0.019064454 0.035823036 0.09231342 -0.07458767 -0.036980312 0.17746437 -0.09226284 0.22127613 -0.14539625 -0.12302662 0.063949026 -0.06609515 -0.121347494 0.013680651 0.06802857 0.12641315 0.14353856 0.23487714 0.03941716 0.061901297 0.0058649047 0.116142295 0.038344614 -0.03632709 0.09785763 0.2548218 -0.038553055 0.031657595 -0.06564057 0.0022245976 -0.06966481 0.11762014 -0.11069098 0.033927836 -0.13866282 0.06413045 0.00365222 0.07928333 -0.06688303 0.023381203 0.1144369 -0.0033720199 -0.022354783 0.21327512 -0.24248566 0.04671063 -0.016261145 0.0071869423 0.0857142 0.056503456 0.10021374 -0.116315305 0.027034238 0.1933708 0.076371476 -0.021922575 0.065344475 0.05537882 0.05775197 -0.05496934 -0.13416636 0.057966284 0.072602175 0.09462055 -0.15818754 -0.02640083 -0.058630917 -0.08096258 0.020333545 0.040407777 0.11149852 0.036392372 0.11741132 -0.032546524 -0.088085055 0.07757118 -0.026445339 -0.034116413 -0.036800817 -0.25420615 -0.014108515 -0.1848996 0.14195298 0.08315351 -0.07354245 -0.16683547 0.12620558 0.16484536 0.08945429 -0.07757683 -0.051338516 0.03538716 -0.06818225 -0.028179325 0.20986035 0.006269521 0.07563268 0.07230887 0.12882277 0.010873978 -0.12218543 -0.06285142 -0.17061438 0.21016614 0.094776586 -0.064021714 0.18955766 0.14095752 0.23330364 -0.10516833 0.11072029 0.11136839 -0.14963567 -0.099394836 0.048025593 -0.06435038 0.20911762 0.14763711 0.16572812 -0.022309965 0.21011122 -0.2144508 -0.078413434 0.034538206 0.20755325 -0.108903036 0.06475248 -0.008241291 -0.09477287 0.11601194 -0.13455223 0.10895063 -0.1517863 0.17391866 0.14385 -0.1861814 -0.024516592 -0.010857015 -0.15371296 -0.12468298 0.21157612 0.045227084 0.073503375 0.14227904 0.16922233 -0.18530667 0.082118884 -0.041113455 -0.17612725 -0.028040987 -0.12997809 -0.06438756 -0.009581135 0.21910475 0.12282331 -0.02927411 0.020465374 -0.02913158 0.17689613 -0.16103844 0.2037556 -0.16258405 -0.011478661 0.008660888 0.14825867 0.19470754 0.042554375 0.010882302 0.012165017 -0.087363675 0.02496823 -0.066448644 0.1408239 -0.10778571 -0.09793836 0.084145516 -0.017993651 -0.07821744 0.031917557 0.03901229 0.0037614289 0.06510542 0.029269937 -0.08524281 0.060144775 -0.1870116 0.07342933 0.052904576
sent_33 0.19260494 0.036739513 -0.17164044 -0.07034061 -0.16149849 -0.36361447 0.3042734 -0.03964705 -0.24527185 -0.04201515 0.19614765 -0.13581808 0.019533578 0.017447636 0.09819319 -0.27730376 0.077670485 -0.16879873 -0.012107572 -0.06765364 0.09635075 0.19995026 -0.3258839 0.10998484 0.20703228 0.07120451 0.37227526 -0.038134094 -0.28472885 0.1732208 -0.17666292 0.15432672 -0.1408048 0.05606008 0.19447175 0.2787415 -0.021632068 -0.0039607943 -0.059158158 0.027074268 -0.115990475 0.0057280855 0.10890821 0.025909428 -0.046114746 -0.013416863 0.19197272 0.30499616 0.11493856 -0.02482704 0.15716952 -0.12964523 -0.12100429 0.24514617 0.06170924 -0.31485954 0.01094199 -0.12284199 0.054069303 0.14165695 -0.028622892 -0.19177768 -0.12736185 -0.3096413 0.49824 0.33046177 0.026318805 0.18630156 -0.11532814 -0.11665618 0.026333325 0.22587697 -0.016675804 0.0806682 -0.07790467 0.069955476 0.061766054 0.11779237 -0.0026080154 0.2784902 -0.028633354 0.050676752 0.20346825 0.21159303 -0.35774666 -0.016456373 0.3054572 0.18958291 0.102109075 -0.13430913 0.11137703 0.053893834 0.16286106 0.08299654 -0.06186871 -0.24932414 -0.26788226 0.28100777 0.109141134 0.2838878 -0.29264054 -0.22746989 0.15126118 -0.18791133 -0.13226539 0.3917216 -0.11855605 -0.063110255 0.15154545 -0.22640204 -0.123067975 -0.044544134 0.21599634 0.0397328 0.22565977 -0.017146917 0.11031273 -0.0025213386 -0.21048647 -0.29061705 -0.097136505 0.09817432 0.14738543 -0.4927723 0.029917143 -0.24792989 -0.30379698 -0.25474918 -0.18521412 -0.35322028 0.03502997 -0.03796037 -0.22322288 0.1390028 -0.22360435 -0.12631032 -0.15188333 -0.2873338 0.2839739 -0.34542102 0.075081445 0.06314122 -0.112440094 0.42366028 0.15315205 0.1634481 0.0030949498 -0.07342881 -0.0812808 -0.12873319 0.29928082 -0.14471132 0.0025748708 -0.22797167 0.3329459 0.070144236 -0.1987489 -0.18291041 -0.0028495358 -0.015254778 0.14490958 0.011528134 -0.23890606 -0.12316913 -0.037194405 0.17238536 0.089690134 0.2864934 -0.07732743 -0.0350847 0.18283896 -0.12039694 -0.08982384 -0.26595435 0.15601113 0.16123275 0.02310624 -0.06548377 0.08756668 0.0017329736 -0.11813048 0.06165179 -0.050317075 0.44461274 0.28504184 0.023987524 -0.18608175 0.07663486 0.06605137 0.023327058 -0.113105744 -0.013195619 -0.29053205 0.13785186 -0.141643 0.30811667 0.04280172 0.3546411 -0.0030355698 -0.08536256
sent_34 -0.10806672 0.21798751 -0.078576215 0.027904136 0.03999852 -0.32038704 -0.0033697707 -0.12754442 0.09909107 -0.023769252 -0.22158152 0.11806345 0.10845349 0.015288509 -0.08248308 -0.04766285 0.07445843 0.05187197 0.13970017 -0.15938953 -0.04283772 0.15203938 -0.09129916 0.2547481 0.08509598 0.0806288 0.20740442 -0.065794796 0.016385857 -0.05362341 -0.17924428 -0.017460624 -0.13831808 0.081858896 0.345334 0.26563674 0.2287472 -0.23108093 -0.038886514 0.22786647 0.06372011 0.11944751 0.25740173 -0.17574607 -0.06810932 -0.29527396 0.13051784 -0.05508294 -0.059389446 -0.016355647 0.15478718 0.04209626 -0.111455046 -0.020134244 0.31677678 -0.17844646 -0.007501952 -0.15160726 -0.034878124 0.1708401 -0.2127169 0.030135585 -0.18474649 -0.04621762 0.09689024 -0.076378606 0.118826374 0.15910348 -0.09220269 -0.04578226 -0.090842664 0.3568239 0.113811344 0.056033537 -0.14737783 -0.19915152 0.021621259 0.24846698 -0.04128399 0.0018416095 -0.05780737 -0.15234098 -0.05632936 -0.008877506 -0.051662862 0.039031204 0.14100753 0.006727652 0.093448214 -0.1366067 0.04168791 0.11540607 -0.07713127 -0.16493815 -0.1039389 -0.1696008 -0.17395431 0.22376785 0.046983894 0.0027616173 -0.5991376 -0.14068662 0.08831964 -0.09404549 -0.3075746 -0.025188692 0.018933482 -0.12163974 -0.22834033 -0.075007394 -0.07530164 -0.046876613 0.1625131 -0.167376 0.06613433 0.11024469 0.10851546 0.074642204 -0.03593801 -0.23663637 -0.12411821 0.1916041 0.2706737 -0.12695661 -0.01403512 0.06942644 -0.32820332 0.12966812 -0.08557136 -0.041603886 0.027205795 -0.07043522 0.009341933 0.102368884 -0.17044169 0.21574773 0.004985619 0.07474505 0.19303979 0.002105143 0.08535686 -0.5038367 -0.11015614 0.04650109 -0.03158995 -0.0051063313 0.08244942 -0.101031825 0.125621 0.07631378 0.25123757 -0.06433633 0.059304934 -0.10805699 0.016093126 0.06944233 -0.19931999 0.061265547 -0.08092035 0.2554683 -0.08137316 0.081362724 -0.0052991933 0.035182867 -0.4616432 -0.010764366 0.12971298 -0.25347552 -0.076543465 0.17945135 0.029778946 -0.14657779 0.06951365 -0.13282105 0.13852654 -0.16884147 0.06363005 0.023891127 0.018257668 0.01841977 0.106094025 0.13239986 0.055710096 0.18203287 -0.022256557 0.42145133 0.16638464 0.060052495 -0.12985428 0.14919396 0.18215321 0.0027845867 -0.108730964 0.06837946 7.8189187E-4 0.40666914 -0.11014878 0.24461322 -0.014615858 0.022496853
sent_35 -0.06909386 0.058353327 -0.069022335 -0.0151744075 0.07074369 -0.08119177 -0.03460133 -0.0341703 0.12814629 -0.038896468 0.023515655 0.07700223 -0.02359853 0.050693005 0.015031325 -0.11895234 -0.062132176 -0.08728799 -0.032627467 -0.032653045 -0.04635082 0.022673888 -0.060647957 0.049818918 0.06596066 0.08131964 0.065308385 -0.04873947 0.036851395 0.010086492 -0.078774735 0.009402645 -0.053780846 0.027029397 0.12369537 0.071191005 0.07754648 -0.15072045 -0.020501059 0.041595258 0.1050459 0.018015115 0.07050037 -0.054660305 -0.010680751 -0.11513308 0.11488009 -0.042929064 0.10827868 -0.07044391 0.039656337 0.06375487 -0.072035484 0.014030126 0.009969882 -0.06092248 0.021600053 -0.04232322 0.019496277 0.10311046 -0.2045257 0.11708282 -0.0013210592 0.0019164485 0.100394726 -0.019963322 0.01802574 0.04920531 -0.03482947 -0.07373024 -0.035776753 0.14087594 0.050009876 0.010080352 -0.023442863 -0.052628066 -0.086914 0.13115111 -0.047181025 -0.0026134036 0.08069879 -0.024936173 -0.0037248696 -0.0635672 -6.614279E-5 -0.019791847 0.0587118 0.038082484 -0.014058574 -0.024887588 -0.058061488 0.12479442 -0.054664414 -0.12269195 -0.04897853 0.05405114 0.0057185525 0.10437645 0.031329695 0.022122303 -0.20540483 -0.09772653 0.034033585 -0.07268214 -0.068941966 0.044770375 0.07509537 -0.08596444 -0.043632496 0.059453674 0.008625211 0.018092422 0.06749648 -0.048859835 0.073457494 0.13188471 0.040589713 0.038951695 0.010575753 -0.044640686 -0.045510583 0.07079807 0.15587504 -0.015576227 -0.050721664 -0.008339743 -0.2282065 0.07663855 0.0851477 0.08187899 3.2339845E-4 -0.12938268 -0.0059681963 -0.0050455774 0.0563532 0.158812 0.014208814 -0.016031446 0.06800051 -0.001812263 0.03608993 -0.16937307 0.02040726 0.0058070538 -0.05498135 -0.02304406 0.070447415 -0.014283621 0.027502978 0.02674208 0.084614076 -0.10459032 0.03965081 -0.012162014 -0.13749047 0.04367495 -0.09762331 -0.0052098543 -0.04353406 0.06143605 -0.044132493 0.03521619 -0.029662631 0.014125271 -0.19104935 0.008689044 0.0019361938 -0.12747018 -0.04661491 0.08390446 -0.010545696 -0.11773941 3.4051187E-5 -0.10115978 0.017994825 -0.013088128 -0.017803162 0.0044522937 0.020181458 0.006547092 -0.012064496 0.09250169 -0.015123737 0.0580784 -0.027894787 0.11305379 0.10695182 0.015934253 -0.08145135 0.03243387 0.17384027 -0.08268629 -0.044375326 0.024265803 0.04605079 0.15728663 -0.13698564 -0.057720944 -0.021875184 -0.008216999
sent_36 -0.4403985 0.39077106 0.08336259 -0.16591512 0.23734301 0.051409118 -0.11150345 0.58652955 -0.5320932 -0.3867858 -0.118187286 -0.32813218 0.1699487 -0.1336414 0.02138512 -0.0307834 -0.04919245 -0.176968 -0.008706603 0.09254995 -0.0099681895 0.13489945 -0.10132805 -0.21578565 -0.06981432 -0.06593796 0.1944466 -0.021696199 -0.44058686 -0.101833336 -0.063223615 0.328832 -0.3992567 0.035195626 -0.13694674 0.025436083 -0.3341899 0.20793086 0.12950179 0.14583085 0.31645963 -0.3508792 -0.28148693 0.17821191 0.17480005 0.3155141 0.18651249 -0.2978998 0.2814798 0.20678568 -0.004302549 0.10176854 -0.2990518 0.11972354 0.080201715 -0.19408949 0.14932896 -0.21504223 0.41409272 -0.017976223 0.36062926 -0.30138287 -0.008642582 0.18543635 -0.05617993 0.5874915 -0.20976003 0.012260791 0.039949115 0.04616881 -0.30723298 -0.2661891 -0.14154582 -0.43866706 0.1566864 0.010722887 0.30406544 0.19612789 0.04536119 0.34891552 0.1514853 -3.364047E-4 -0.26640493 0.035074595 -0.06642957 -0.0027994455 0.12990488 0.11412318 -0.06945492 0.40706995 0.505654 0.13106106 -0.25469464 0.25769722 0.068478696 -0.34871218 0.2742752 -0.09725394 0.25532943 -0.43558684 -0.10090252 -0.037761502 0.031970188 -0.029242566 0.11985296 0.19976845 -0.061840322 -0.054650616 -0.2626907 -0.037012927 0.40445676 0.38337696 -0.27027017 0.05605251 0.074217856 -0.11862656 -0.018511811 -0.14228112 -0.1947396 -0.60491604 0.054097526 -0.15327772 0.07245678 0.073917665 -0.04103868 0.19518578 -0.067056865 -0.028679159 -0.27821845 -0.041367564 0.20656268 -0.21420427 -0.100825965 0.093661755 -0.047108687 -0.06870062 -0.10656066 0.1288968 0.18761061 -0.5290833 0.35566184 0.56706464 0.20594946 -0.29152897 0.47256026 -0.3753571 -0.14718479 0.35846195 -0.084738344 -0.17185105 -0.38435975 -0.16122767 0.03583371 -0.03541579 0.47861987 -0.27007946 -0.19842127 0.03225181 -0.021346183 -0.056246083 -0.056061875 -0.3231563 -0.09473087 0.017692687 0.5917652 -0.09167455 0.25700143 0.60207933 -0.32079697 0.25078443 0.11395978 0.08805802 0.068980835 0.2506636 0.31276736 0.66916394 0.029968943 0.20948249 -0.2781601 -0.50973654 -0.14452237 -0.013217981 -0.5172346 -0.09162042 0.18176435 -0.09751806 -0.22411685 -0.44710523 0.05631373 -0.05122217 -0.15969439 0.3482041 -0.029578453 0.43088916 0.10363555 -0.25488532 0.30633414 0.42009094 0.60723686 0.22632043
sent_37 0.13263784 0.041110035 0.1401675 -0.07637154 -0.27066427 0.15390614 0.2774037 -0.100184344 -0.044993736 -0.02899206 -0.19019249 -0.26769775 0.40008542 0.047687694 -0.034580313 -0.4099399 -0.104607254 -0.2085568 0.14708088 0.006590085 -0.18772669 0.18681793 -0.027787635 -0.046086933 0.123967506 -0.225551 0.1747441 0.17575388 -0.23981476 -0.21042116 0.021617478 0.3302377 -0.32339954 0.13744423 0.13680169 -0.22456373 -0.0063485852 -0.117327236 -0.06532636 -0.06494225 -0.017820498 -0.008434235 -0.16543773 -0.050370906 0.14774421 0.03463502 0.35262522 0.2210712 0.11953122 -0.024342068 0.01256515 -0.15493582 -0.14103481 -0.17206901 0.070474036 -0.44437882 0.08756994 -0.24609476 0.04590815 0.2436964 -0.29218853 0.17499061 6.716714E-4 -0.26940846 -0.09137593 0.0624251 -0.21658511 -0.035424516 -0.16460569 0.034102492 -0.08288355 0.11863674 -0.06729648 0.12823547 -0.15995133 0.3090234 -0.12762687 0.025148535 0.09906862 0.17143598 0.0023845735 -0.09765547 0.18374778 0.23323633 -0.28039864 0.04808006 -0.14648752 -0.16281289 -0.0052532284 -0.19627444 -0.18735833 0.0980884 -0.1931425 0.14491726 -0.18307222 0.09006608 0.0687047 0.13648131 -0.15751898 0.10673913 -0.017528243 0.19639625 -0.05699175 0.08196215 -0.1323661 0.057948757 -0.1456082 0.21700105 0.15024783 0.3707551 0.05483861 0.06425702 0.28554437 0.019974414 0.35182273 -0.27829465 -0.11145354 -0.0031285034 -0.013733302 0.10041968 -0.15317221 -0.07884865 -0.1528203 -0.36202964 -0.2666131 0.1593581 0.044323154 0.17521454 -0.026491331 -0.17098114 -0.36526337 0.038688503 -0.06575098 0.056002624 -0.105459675 0.06311878 -0.19915476 -0.33004594 0.2018222 -0.15475379 0.0198417 0.054479316 -0.044999205 0.24152038 -0.19699222 -0.06791431 -0.20679015 -0.028806303 0.19460559 0.00325185 0.14920683 -0.3642598 -0.20952679 0.03843546 0.13126239 -0.36304912 -0.20239949 0.06252494 -0.17216413 -0.14275183 -0.18598972 0.06981515 -0.15020534 -0.1474271 0.104201496 0.36916494 0.088161886 0.13387637 0.055419397 -0.040177308 -0.18681844 0.16795793 -0.44501978 -0.25637203 -0.18651243 0.044163316 -0.24774398 -0.09884643 0.088746056 0.095244646 -0.2962058 0.21165793 -0.025468655 0.056591317 0.06498415 0.24851896 -0.006747448 -0.07598683 -0.045841172 -0.033744343 -0.09258976 0.12077647 -0.20762847 -0.12192134 -0.021180915 -0.0021793114 -0.2432904 0.24849984 -0.13168734 -0.22495489
sent_38 0.023950713 -0.11797309 0.039579533 -0.09734923 -0.08196665 0.041871995 -0.017417148 -0.012931542 -0.07725759 0.036385894 0.06696523 -0.15080664 0.06904502 -0.1287002 -0.06121507 -0.12418662 0.112130746 -0.12228297 0.025592448 0.061878275 0.038094226 0.052194178 -0.05107879 -0.21809286 0.13051131 0.027983937 0.09026946 0.06420273 -0.21142524 -0.011733664 -0.013701614 0.07179564 -0.049058422 -0.119156584 -0.02788916 0.077059954 -0.110625476 0.078056276 -0.03197609 -0.12131314 0.009751808 0.06934199 -0.10312665 0.14837906 0.050784603 0.11475155 0.101209246 0.081950404 0.052925125 -0.0027875188 -0.013122694 0.050263755 0.018050069 0.07021994 -0.06312609 -0.16039701 0.021946294 -0.044841304 0.017259564 -0.010559643 0.06270981 0.016442223 -0.0077627758 -0.061730243 0.10453404 0.1329565 0.071206495 0.02402284 -0.08997023 0.059270393 0.028347878 -0.030805184 -0.044368066 -0.06543602 -0.07541306 0.13131692 -0.025717724 -0.05176766 0.020367747 0.14737464 0.08582276 0.11258808 0.02415589 0.029036164 -0.06008279 0.010046789 0.04706109 0.05032177 0.023346866 0.13339993 0.13898991 0.06955358 0.07546859 0.12152491 0.015593412 -0.08936012 0.0010909105 0.06340864 -0.03583314 -0.02353863 0.089587756 -0.19213025 -0.04675546 -0.013704777 0.13436113 0.1737198 -0.018993188 0.12109781 0.14612448 -0.04205854 0.03194654 0.10119803 0.09449909 0.026209274 0.08156682 -0.059160337 -0.067735374 -0.16459282 -0.042474236 -0.08074982 0.009282244 -0.04135274 -0.08163115 -0.089949556 -0.03929107 -0.03609555 -0.093890674 -0.21638012 -0.08528657 -0.045578655 -0.12693992 -0.0331273 -0.11398823 0.10746264 -0.15187024 -0.10901969 0.038289644 -0.031440813 0.061726883 -0.16293049 0.085186124 0.24691823 0.043122146 0.12086694 0.04927082 1.36041E-4 -0.08596012 0.06256113 -0.08284079 -0.019055428 -0.16311866 -0.0342654 -0.073491685 -0.08776717 0.118391804 -0.104031906 -0.04943681 -0.063218325 -0.03993927 -0.008824944 0.03369657 0.016268319 -0.03616592 -0.101891324 0.17669399 0.032769337 -0.024433797 0.19959652 0.036142148 -0.05615729 -0.001409712 -0.011567814 -0.07625602 -0.084534444 0.1149788 0.25410303 -0.1026831 -0.006045761 0.082192205 -0.061076075 -0.11671341 0.03408703 -0.11075875 0.063712195 0.001393638 -0.18182288 -0.11041444 -0.083281964 0.0019972397 0.012708875 -0.09280018 0.061862733 0.0050436 0.007894245 0.028165327 0.0067581525 -0.018966537 -0.047604263 0.14535718 0.04065941
sent_39 0.09031216 -0.029102175 -0.07550392 -0.09587005 -0.1555457 -0.27766877 0.2214301 -0.07424026 -0.1590902 -0.018991722 0.16774331 -0.02541749 0.0099662645 -0.06511648 0.045192927 -0.18317956 0.14306167 -0.098145604 -0.119793 -0.048679546 0.113941774 0.119504295 -0.16349584 -0.01125136 -0.027928513 0.048378363 0.09157046 0.028600037 0.010644049 0.14760336 -0.061043706 0.044843853 0.009685907 -0.04070186 0.10543064 0.0618732 -0.09134217 0.11518096 -0.019767644 -0.014217908 -0.1941093 0.07754663 0.018296884 0.13986239 -0.07927135 0.07675246 0.010577306 0.16039802 0.035870865 -0.025323981 0.039914962 -0.19987886 -0.0058648647 0.23512729 0.04537158 -0.20263553 0.02379588 -0.08624846 0.06852228 0.0010870354 0.08718727 -0.14148523 -0.102296576 -0.1252332 0.23519692 0.11743161 0.09844558 0.037738644 -0.009862639 0.024899764 0.061836306 0.008896675 0.0021318116 0.033458505 -7.3345174E-4 0.03698851 0.05430111 -0.010902846 -0.008006248 0.13424693 0.08316139 0.162195 0.12011698 0.22813152 -0.13138469 -0.048820388 0.17898977 0.013458309 -0.027307894 -0.041645262 0.116512515 -0.032176305 0.18915214 0.100668885 0.06756979 -0.16289449 -0.09925376 0.026329916 0.12235537 0.10125811 -0.10923063 -0.18925565 0.011706012 -0.14742486 -0.040171407 0.1395369 -0.07763985 -0.013433912 0.051683605 -0.15923338 -0.068998 0.02904715 0.09151334 -0.0037483913 0.11772528 -0.08106724 -0.06712374 -0.0970359 -0.16886736 -0.15662217 -0.012262952 0.080901794 -0.023836691 -0.225993 0.11091497 -0.12246056 -0.13484764 -0.2532035 -0.15509649 -0.27909726 0.07628485 0.04044087 -0.1200675 0.14784706 -0.03377496 -0.16828945 -0.14964405 -0.20899229 0.1272704 -0.0473798 0.0107976105 0.116192624 -0.14283384 0.1080858 0.12930745 0.07028175 -0.02551639 -0.14996883 -0.005946217 -0.093971126 0.015070487 0.007899064 0.13503417 -0.09349237 0.32696268 0.047863357 -0.061007656 0.027140079 0.0011976257 -0.14336419 0.14841063 0.020786652 -0.08732269 -0.057438795 0.06296331 0.09985688 0.06693649 0.2761035 -0.042762194 -0.049225654 0.10623696 0.071164936 0.029480893 -0.15034302 0.10795303 0.10385543 0.04261693 -0.0142024495 0.075930856 -0.01395994 0.031556387 -0.076539874 -0.107491136 0.20103978 0.19251396 -0.077939026 -0.054876424 0.033143446 0.11295928 0.07071745 -0.117921226 0.095045656 -0.07916239 0.010268496 -0.085160196 0.12101967 0.02893594 0.11675967 0.13086691 0.01821082
sent_40 -0.08572131 0.18616058 0.16355875 -0.056373857 -0.114160456 9.916018E-4 0.1180708 0.24287932 -0.33457023 -0.13925163 -0.1214474 -0.39965597 0.26635033 -0.01518119 -0.060493506 -0.066241935 -0.051925793 -0.16313136 0.11256933 0.11653762 -0.041823816 0.102624565 -0.13177791 -0.27085197 0.3476536 -0.05252837 0.14312887 0.09186619 -0.31944424 -0.134074 0.052601907 0.25704584 -0.18657915 -0.023497777 -0.12370906 0.11185896 -0.2654929 0.025574453 0.2530357 -0.15151937 0.09491627 -0.04361694 0.0117962 0.077508524 -0.07027196 0.07982152 0.2873893 0.11010713 0.16364004 -0.015129925 0.12771489 0.092045344 -0.031600505 -0.033926785 0.045092326 -0.25197297 -0.07135014 -0.10464674 -0.0019684709 -0.11389415 0.12877887 0.0586822 0.12270633 -0.113784164 -0.018142803 0.28389707 0.012627882 0.12660542 -0.105673894 -0.045186218 -0.06547994 -0.12966582 -0.0023856203 -0.18242285 -0.032279097 0.12299807 0.053231757 -0.090157084 0.038343623 0.24612838 0.073633745 -0.05053343 0.11600518 0.14398842 -0.25475398 0.08852244 0.14778894 0.19826691 -0.061091367 0.017164122 0.2438523 -0.06017656 -0.021986114 0.21760441 -0.048965815 -0.18306759 -0.008736871 0.010274727 -0.04375791 -0.26768836 0.18775493 -0.116053626 -0.13308166 -0.028911449 -0.014972355 0.06520875 0.005019184 0.21511002 0.11623944 0.055069797 0.06623577 0.27812046 0.17508711 -0.030579839 0.17394151 -0.2154428 -0.15218212 -0.031137185 -0.20305052 -0.23481072 -0.15021585 -0.14381815 -0.008801967 -0.26241934 -0.076167144 0.02942264 0.04648472 -0.14546673 -0.13750479 -0.17844905 0.018217301 -0.003032029 -0.07838067 0.0425552 -0.16725495 -0.051928617 -0.096687265 -0.12682113 0.2610004 -0.25108415 0.19857325 0.27767515 0.07685604 0.113978416 0.25946543 -0.14757366 -0.012977494 0.078300245 0.049738143 0.0537304 -0.092701964 -0.19031312 -0.2492276 -0.09515201 0.28068265 -0.20006858 -0.124564335 0.056575045 -0.014350742 -0.06667802 0.010203043 0.023880698 -0.09448542 -0.07124587 0.20801316 0.22694568 -0.056416012 0.35097504 -0.079757445 0.16246775 -0.07011078 0.04201455 -0.21552582 -0.040682856 0.28920612 0.17384021 -0.15574919 0.06445823 -0.026039131 -0.13633466 -0.18703902 0.06952682 -0.19838855 -0.16363105 0.019632671 -0.22255842 -0.09909271 -0.21042146 0.21517013 -0.09614567 -0.30475837 0.22948207 -0.17724246 -0.024127794 -0.070246726 -0.07750743 -0.03671406 0.2579314 0.2546365 0.023876285
